svm_type c_svc
kernel_type rbf
gamma 0.03125
nr_class 6
total_sv 232
rho 0.389554 0.196315 0.285955 0.118326 0.0778448 -0.363739 -0.140299 -0.218659 -0.275136 0.34257 0.0563964 -0.0361164 -0.072368 -0.0553344 0.157148
label 1 2 3 4 5 6
probA -4.29836 -3.74869 -4.39859 -4.19652 -3.82162 -3.33439 -3.25633 -4.37205 -4.29268 -3.53099 -2.61205 -4.29435 -3.21043 -4.10922 -3.86455
probB 0.0129846 0.0347401 0.101682 -0.0484772 -0.00089144 -0.0365539 0.104757 0.275988 -0.147359 -0.219225 -0.0148824 0.0780129 -0.280285 -0.232149 0.0135105
nr_sv 25 60 37 48 36 26
SV
1.330130917726513 1.025996167938148 0.8950616888224673 0.6348994351014426 0.4187121586395636 1:-0.676899 2:0.360287 3:0.380475 4:-0.442672 5:0.16361 6:0.522078 7:-0.60942 8:0.288866 9:0.50309 10:-0.399003 11:0.243462 12:0.605595 13:-0.580738 14:0.260669 15:0.522761 16:-0.375636 17:0.256387 18:0.620491 19:-0.583353 20:0.259725 21:0.510073 22:-0.374337 23:0.252611 24:0.6124 25:-0.582151 26:0.260247 27:0.511668 28:-0.372038 29:0.251222 30:0.609435 31:-0.583138 32:0.258233 33:0.517157 34:-0.369427 35:0.250958 36:0.608379 37:-0.479909 38:0.360478 39:0.0857224 40:-0.391151 41:-0.0737449 42:0.202319 43:-0.39161 44:0.279682 45:0.245346 46:-0.307498 47:0.0410767 48:0.289726 49:-0.368179 50:0.252077 51:0.295833 52:-0.273569 53:0.0664354 54:0.309958 55:-0.369261 56:0.252059 57:0.29333 58:-0.270619 59:0.0687439 60:0.303363 61:-0.367828 62:0.256325 63:0.288672 64:-0.269778 65:0.0690462 66:0.301104 67:-0.368635 68:0.2537 69:0.284513 70:-0.267852 71:0.0724713 72:0.305571 73:-0.256355 74:0.334735 75:-0.119068 76:-0.297931 77:-0.232214 78:-0.0755917 79:-0.186308 80:0.263242 81:0.0476978 82:-0.185436 83:-0.12233 84:-0.00465471 85:-0.164792 86:0.241339 87:0.100933 88:-0.148999 89:-0.0966116 90:0.0124736 91:-0.166353 92:0.24997 93:0.0956691 94:-0.147751 95:-0.0978181 96:0.000681369 97:-0.162993 98:0.260725 99:0.0878324 100:-0.147902 101:-0.100337 102:-0.00618635 103:-0.16529 104:0.269439 105:0.0813689 106:-0.147178 107:-0.0987729 108:-0.00910716 109:-0.0310783 110:0.316042 111:-0.302677 112:-0.19254 113:-0.392038 114:-0.341266 115:0.0214445 116:0.251847 117:-0.12705 118:-0.0657614 119:-0.287049 120:-0.296899 121:0.0420613 122:0.238691 123:-0.0785504 124:-0.0266556 125:-0.260294 126:-0.285974 127:0.0398499 128:0.250919 129:-0.0859015 130:-0.0251379 131:-0.262712 132:-0.301174 133:0.0363812 134:0.270937 135:-0.0908634 136:-0.0287315 137:-0.267696 138:-0.314025 139:0.0353968 140:0.30448 141:-0.103128 142:-0.0344759 143:-0.271973 144:-0.330125 145:0.200278 146:0.29726 147:-0.404329 148:-0.0774295 149:-0.510885 150:-0.549915 151:0.23072 152:0.255624 153:-0.281649 154:0.047619 155:-0.438573 156:-0.567057 157:0.252387 158:0.24978 159:-0.237792 160:0.0882257 161:-0.415822 162:-0.564904 163:0.247361 164:0.266687 165:-0.237837 166:0.0901951 167:-0.41647 168:-0.579226 169:0.240186 170:0.301742 171:-0.250426 172:0.080919 173:-0.425542 174:-0.601 175:0.232677 176:0.359353 177:-0.273773 178:0.0674758 179:-0.437349 180:-0.633709 181:0.301846 182:0.302139 183:-0.2384 184:0.0681468 185:-0.462597 186:-0.553504 187:0.264576 188:0.318447 189:-0.149293 190:0.177094 191:-0.397374 192:-0.602673 193:0.258863 194:0.349803 195:-0.131054 196:0.194636 197:-0.387893 198:-0.617747 199:0.254653 200:0.372429 201:-0.134207 202:0.192923 203:-0.38887 204:-0.632636 205:0.248375 206:0.419853 207:-0.157415 208:0.176312 209:-0.40481 210:-0.663657 211:0.250016 212:0.495223 213:-0.194766 214:0.150544 215:-0.427438 216:-0.708392 
0.8191408089459078 0 0.7589163997495237 0.6565015910386838 0.2967343931825805 1:0.231641 2:0.558312 3:0.652859 4:0.629637 5:-0.0388995 6:-0.445712 7:0.213492 8:0.771347 9:0.693426 10:0.776383 11:-0.0520305 12:-0.755928 13:0.187769 14:0.998184 15:0.675721 16:0.793997 17:-0.137656 18:-0.998722 19:0.183794 20:1 21:0.667455 22:0.791686 23:-0.133749 24:-1 25:0.191073 26:1 27:0.672356 28:0.796098 29:-0.129469 30:-1 31:0.192171 32:1 33:0.675171 34:0.795238 35:-0.128023 36:-1 37:0.258276 38:0.558795 39:0.721601 40:0.689145 41:-0.00607249 42:-0.447131 43:0.198917 44:0.778355 45:0.777 46:0.853636 47:0.00803205 48:-0.766515 49:0.181266 50:0.999608 51:0.766071 52:0.858163 53:-0.0857592 54:-0.999684 55:0.178863 56:1 57:0.758138 58:0.852902 59:-0.0794095 60:-1 61:0.185412 62:1 63:0.755226 64:0.851404 65:-0.074435 66:-1 67:0.187572 68:1 69:0.746669 70:0.84404 71:-0.0733474 72:-1 73:0.271727 74:0.570345 75:0.740607 76:0.689297 77:0.00897087 78:-0.459117 79:0.212629 80:0.790952 81:0.806783 82:0.876438 83:0.0261654 84:-0.7771 85:0.179889 86:1 87:0.804848 88:0.886061 89:-0.0610123 90:-1 91:0.177811 92:1 93:0.796117 94:0.880657 95:-0.0566914 96:-1 97:0.186016 98:1 99:0.791734 100:0.877451 101:-0.054065 102:-1 103:0.186405 104:1 105:0.784404 106:0.872399 107:-0.0535083 108:-1 109:0.30016 110:0.575866 111:0.745683 112:0.690971 113:0.00945744 114:-0.462005 115:0.216031 116:0.794053 117:0.818952 118:0.883144 119:0.0295504 120:-0.779289 121:0.182029 122:1 123:0.815369 124:0.894373 125:-0.0561752 126:-1 127:0.180488 128:1 129:0.799375 130:0.888615 131:-0.0527045 132:-1 133:0.180878 134:1 135:0.800318 136:0.883405 137:-0.0513271 138:-1 139:0.185441 140:1 141:0.799783 142:0.882282 143:-0.0506611 144:-1 145:0.299652 146:0.578295 147:0.743279 148:0.689256 149:0.00662416 150:-0.465282 151:0.215942 152:0.795772 153:0.818564 154:0.883285 155:0.0285158 156:-0.781382 157:0.185984 158:1 159:0.81599 160:0.895529 161:-0.0550207 162:-1 163:0.18278 164:1 165:0.807788 166:0.889062 167:-0.0507823 168:-1 169:0.180898 170:1 171:0.805896 172:0.884271 173:-0.0491904 174:-1 175:0.180261 176:1 177:0.804176 178:0.882658 179:-0.0490811 180:-1 181:0.259317 182:0.576417 183:0.756064 184:0.701392 185:0.0086807 186:-0.46747 187:0.211343 188:0.796903 189:0.823109 190:0.887583 191:0.0311102 192:-0.783019 193:0.184804 194:1 195:0.82213 196:0.900495 197:-0.0507906 198:-1 199:0.183217 200:1 201:0.814301 202:0.895144 203:-0.0459739 204:-1 205:0.181255 206:1 207:0.812133 208:0.893497 209:-0.0448902 210:-1 211:0.188703 212:1 213:0.807902 214:0.88893 215:-0.0471938 216:-1 
0.6124524467899826 0.9093975881131093 0.830331605837781 0.7240561431004328 0.7306161713821495 1:0.119426 2:0.609044 3:-1 4:-0.489991 5:-0.748864 6:-0.913438 7:0.133196 8:0.627639 9:-1 10:-0.476825 11:-0.757997 12:-0.904126 13:0.123711 14:0.634556 15:-1 16:-0.465788 17:-0.753921 18:-0.898007 19:0.12087 20:0.647805 21:-0.994462 22:-0.45635 23:-0.750539 24:-0.893751 25:0.124266 26:0.661394 27:-0.961573 28:-0.441517 29:-0.741455 30:-0.888862 31:0.122752 32:0.644396 33:-0.915786 34:-0.418929 35:-0.721166 36:-0.871661 37:0.241076 38:0.914078 39:-1 40:-0.46697 41:-0.80247 42:-0.982043 43:0.245016 44:0.935925 45:-1 46:-0.447949 47:-0.806079 48:-0.983199 49:0.236399 50:0.941014 51:-1 52:-0.443162 53:-0.806422 54:-0.984431 55:0.236522 56:0.949991 57:-1 58:-0.438817 59:-0.808033 60:-0.986704 61:0.242617 62:0.956807 63:-1 64:-0.429486 65:-0.803534 66:-0.988352 67:0.243089 68:0.934137 69:-0.994072 70:-0.41284 71:-0.788594 72:-0.979705 73:0.22803 74:0.984174 75:-1 76:-0.469339 77:-0.804515 78:-0.996214 79:0.245438 80:0.995737 81:-1 82:-0.445294 83:-0.815369 84:-0.998815 85:0.238165 86:0.996067 87:-1 88:-0.438221 89:-0.815981 90:-0.998895 91:0.23919 92:0.997801 93:-1 94:-0.432949 95:-0.817671 96:-0.999371 97:0.247987 98:0.99765 99:-1 100:-0.423364 101:-0.813865 102:-0.999305 103:0.247125 104:0.972009 105:-0.99053 106:-0.404528 107:-0.79912 108:-0.99017 109:0.222869 110:0.991601 111:-1 112:-0.470323 113:-0.80476 114:-0.997982 115:0.245958 116:0.999342 117:-0.977796 118:-0.443487 119:-0.816642 120:-0.999816 121:0.242541 122:0.999456 123:-0.982526 124:-0.434941 125:-0.818843 126:-0.999843 127:0.244202 128:0.99976 129:-0.976477 130:-0.428353 131:-0.820249 132:-0.999922 133:0.245319 134:0.999495 135:-0.96628 136:-0.419886 137:-0.817779 138:-0.99983 139:0.248656 140:0.976147 141:-0.948499 142:-0.399938 143:-0.803473 144:-0.991556 145:0.221283 146:0.992604 147:-1 148:-0.473778 149:-0.807035 150:-0.998204 151:0.246517 152:0.999443 153:-0.982685 154:-0.44454 155:-0.819023 156:-0.999842 157:0.248825 158:0.999456 159:-0.98183 160:-0.435366 161:-0.822462 162:-0.999842 163:0.24905 164:0.99976 165:-0.971627 166:-0.42805 167:-0.823787 168:-0.999922 169:0.247875 170:0.999495 171:-0.959996 172:-0.419462 173:-0.821259 174:-0.99983 175:0.245347 176:0.977732 177:-0.939472 178:-0.399084 179:-0.806592 180:-0.992124 181:0.210371 182:0.992476 183:-1 184:-0.485857 185:-0.815389 186:-0.998101 187:0.243341 188:0.997037 189:-0.9849 190:-0.444936 191:-0.819546 192:-0.99917 193:0.248757 194:0.998407 195:-0.97843 196:-0.43287 197:-0.82291 198:-0.99954 199:0.251018 200:0.999115 201:-0.969726 202:-0.425646 203:-0.824774 204:-0.999738 205:0.249619 206:0.999001 207:-0.958499 208:-0.416259 209:-0.822232 210:-0.999685 211:0.255419 212:0.978499 213:-0.93807 214:-0.396841 215:-0.808021 216:-0.992415 
0 0.6479589666977401 0 0 0 1:-0.0845242 2:0.723445 3:0.269297 4:0.276745 5:-0.0212283 6:-0.606222 7:0.0408634 8:0.813985 9:0.439925 10:0.45845 11:-0.0138126 12:-0.707359 13:0.0695205 14:0.816288 15:0.489085 16:0.513922 17:0.00179677 18:-0.707528 19:0.0836909 20:0.812706 21:0.486665 22:0.525388 23:-0.00215459 24:-0.71131 25:0.099852 26:0.816829 27:0.482251 28:0.525224 29:-0.00928659 30:-0.717911 31:0.0941853 32:0.843284 33:0.435246 34:0.485398 35:-0.0452994 36:-0.74211 37:0.0276146 38:0.806476 39:0.344997 40:0.458221 41:0.0385337 42:-0.789872 43:0.139617 44:0.97751 45:0.477209 46:0.64466 47:0.03927 48:-0.986551 49:0.135239 50:0.99776 51:0.518366 52:0.675642 53:0.0495991 54:-0.998475 55:0.135514 56:0.999102 57:0.52351 58:0.680518 59:0.0476876 60:-0.999383 61:0.143306 62:0.999406 63:0.518692 64:0.678792 65:0.044967 66:-0.99958 67:0.14668 68:0.998469 69:0.493081 70:0.66094 71:0.0336761 72:-0.999526 73:0.034609 74:0.784 75:0.442036 76:0.512455 77:0.0990728 78:-0.762328 79:0.143454 80:0.99303 81:0.526598 82:0.682883 83:0.0552963 84:-0.995247 85:0.136546 86:1 87:0.549127 88:0.69843 89:0.0591008 90:-1 91:0.136302 92:1 93:0.549532 94:0.700315 95:0.0578298 96:-1 97:0.145029 98:1 99:0.543231 100:0.697036 101:0.056327 102:-1 103:0.146112 104:1 105:0.533582 106:0.691952 107:0.0533514 108:-1 109:0.0289473 110:0.770695 111:0.449843 112:0.517753 113:0.10081 114:-0.751636 115:0.144414 116:0.991311 117:0.530104 118:0.681446 119:0.0488279 120:-0.994168 121:0.139473 122:1 123:0.550212 124:0.698324 125:0.0538738 126:-1 127:0.13925 128:1 129:0.545636 130:0.700443 131:0.0544167 132:-1 133:0.14026 134:1 135:0.547272 136:0.696723 137:0.0537821 138:-1 139:0.145141 140:1 141:0.545769 142:0.695983 143:0.0531056 144:-1 145:0.0297407 146:0.76776 147:0.447514 148:0.5183 149:0.0943223 150:-0.750789 151:0.144754 152:0.991374 153:0.525862 154:0.679509 155:0.0427769 156:-0.994141 157:0.144111 158:1 159:0.546783 160:0.696239 161:0.0482632 162:-1 163:0.1425 164:1 165:0.548398 166:0.697063 167:0.0481952 168:-1 169:0.141351 170:1 171:0.548441 172:0.694196 173:0.0473884 174:-1 175:0.140946 176:1 177:0.548762 178:0.694905 179:0.0483357 180:-1 181:0.0323692 182:0.771865 183:0.406074 184:0.483915 185:0.0595314 186:-0.754334 187:0.145263 188:0.99082 189:0.464941 190:0.634555 191:0.00282225 192:-0.994074 193:0.146631 194:0.999899 195:0.482885 196:0.649275 197:0.00651498 198:-0.999947 199:0.146437 200:0.999823 201:0.481948 202:0.649089 203:0.00597838 204:-0.999908 205:0.145055 206:0.999747 207:0.480627 208:0.648279 209:0.0041737 210:-0.999869 211:0.15226 212:0.99962 213:0.478425 214:0.646297 215:0.00322296 216:-0.999802 
0 0.7577275904097003 0 0 0 1:0.114371 2:0.94159 3:-0.0601749 4:0.215876 5:-0.163381 6:-0.981252 7:0.117564 8:0.97992 9:0.0211861 10:0.254782 11:-0.165975 12:-0.99187 13:0.10726 14:0.995366 15:0.0844786 16:0.303136 17:-0.126954 18:-0.997826 19:0.104114 20:0.99944 21:0.091336 22:0.311866 23:-0.121489 24:-0.999684 25:0.112001 26:0.999695 27:0.102309 28:0.317695 29:-0.1221 30:-0.999829 31:0.113752 32:0.999886 33:0.105334 34:0.313344 35:-0.130077 36:-0.999934 37:0.153009 38:0.956588 39:0.124166 40:0.392283 41:-0.132351 42:-0.97842 43:0.155595 44:0.991055 45:0.179589 46:0.425625 47:-0.15706 48:-0.995938 49:0.14704 50:0.998722 51:0.234704 52:0.466627 53:-0.132052 54:-0.999329 55:0.145931 56:0.999899 57:0.244882 58:0.475808 59:-0.126089 60:-0.999921 61:0.153355 62:0.999899 63:0.247503 64:0.480889 65:-0.124425 66:-0.999921 67:0.156635 68:0.999962 69:0.241879 70:0.479562 71:-0.126591 72:-0.999974 73:0.144592 74:0.968895 75:0.302962 76:0.515312 77:-0.030674 78:-0.975185 79:0.154085 80:0.99747 81:0.302439 82:0.517226 83:-0.0935919 84:-0.998617 85:0.145683 86:1 87:0.334974 88:0.541298 89:-0.0788447 90:-1 91:0.145117 92:1 93:0.341418 94:0.54811 95:-0.0764369 96:-1 97:0.1541 98:1 99:0.340645 100:0.549957 101:-0.0776261 102:-1 103:0.155395 104:1 105:0.339653 106:0.552435 107:-0.0783764 108:-1 109:0.141457 110:0.979358 111:0.349114 112:0.548333 113:-0.00594692 114:-0.981055 115:0.1534 116:1 117:0.326317 118:0.529416 119:-0.0853686 120:-1 121:0.147754 122:1 123:0.348808 124:0.549411 125:-0.0745342 126:-1 127:0.148098 128:1 129:0.353998 130:0.558324 131:-0.0728453 132:-1 133:0.149685 134:1 135:0.363893 136:0.561437 137:-0.0739055 138:-1 139:0.154859 140:1 141:0.372459 142:0.568876 143:-0.0725701 144:-1 145:0.140822 146:0.980892 147:0.356881 148:0.553533 149:-0.00295862 150:-0.982334 151:0.153174 152:1 153:0.327716 154:0.531867 155:-0.0858218 156:-1 157:0.152114 158:1 159:0.348998 160:0.549822 161:-0.0766003 162:-1 163:0.150998 164:1 165:0.359054 166:0.556912 167:-0.0758697 168:-1 169:0.150537 170:1 171:0.36852 172:0.561363 173:-0.0758814 174:-1 175:0.150293 176:1 177:0.379399 178:0.570407 179:-0.0717942 180:-1 181:0.141729 182:0.977622 183:0.371168 184:0.564951 185:-0.00461265 186:-0.979375 187:0.151337 188:1 189:0.327664 190:0.532345 191:-0.0885899 192:-1 193:0.152211 194:1 195:0.345968 196:0.547884 197:-0.0810542 198:-1 199:0.152906 200:1 201:0.355955 202:0.555811 203:-0.0813465 204:-1 205:0.152366 206:1 207:0.36772 208:0.56476 209:-0.0809488 210:-1 211:0.159963 212:1 213:0.37924 214:0.573255 215:-0.077606 216:-1 
0.206154454501723 0.5802077895105127 0.1961912360650782 0.19632525760317 0.7660137888027919 1:0.122717 2:0.590465 3:0.370026 4:0.573931 5:0.0610931 6:-0.667128 7:0.124974 8:0.6801 9:0.517917 10:0.66332 11:0.0830595 12:-0.702615 13:0.113588 14:0.685696 15:0.600709 16:0.732328 17:0.125774 18:-0.688618 19:0.110709 20:0.675436 21:0.609277 22:0.742667 23:0.12868 24:-0.67913 25:0.119011 26:0.661927 27:0.604227 28:0.739301 29:0.120948 30:-0.667099 31:0.121827 32:0.653706 33:0.586299 34:0.722361 35:0.106387 36:-0.659662 37:0.165265 38:0.827496 39:0.4338 40:0.626807 41:-0.0203096 42:-0.876219 43:0.161711 44:0.984783 45:0.500803 46:0.663382 47:-0.0486833 48:-0.993558 49:0.155362 50:0.998241 51:0.558433 52:0.705165 53:-0.0318463 54:-0.998672 55:0.155817 56:0.995432 57:0.566732 58:0.712274 59:-0.0324024 60:-0.996259 61:0.164702 62:0.991086 63:0.551511 64:0.702741 65:-0.04413 66:-0.993053 67:0.168849 68:0.989141 69:0.518996 70:0.679651 71:-0.0628739 72:-0.991716 73:0.154051 74:0.863616 75:0.590088 76:0.730049 77:0.061053 78:-0.877431 79:0.160828 80:0.998887 81:0.606774 82:0.742134 83:0.00724671 84:-0.999236 85:0.1532 86:0.99976 87:0.623974 88:0.753348 89:0.00989814 90:-0.999776 91:0.152883 92:0.999747 93:0.625185 94:0.755645 95:0.0083287 96:-0.999764 97:0.162751 98:0.999747 99:0.61006 100:0.745555 101:-0.00358254 102:-0.999764 103:0.164729 104:0.999949 105:0.589093 106:0.731888 107:-0.0172652 108:-0.999947 109:0.151538 110:0.886811 111:0.660314 112:0.781179 113:0.0882476 114:-0.89566 115:0.159517 116:0.999798 117:0.684785 118:0.796842 119:0.0445513 120:-0.999816 121:0.154208 122:0.999798 123:0.687558 124:0.799874 125:0.0420268 126:-0.999816 127:0.154006 128:0.999798 129:0.67716 130:0.797981 131:0.0395561 132:-0.999818 133:0.155267 134:0.999798 135:0.673517 136:0.789859 137:0.0337501 138:-0.999817 139:0.16054 140:1 141:0.660145 142:0.779869 143:0.0243077 144:-1 145:0.149941 146:0.898195 147:0.700236 148:0.811507 149:0.111563 150:-0.907485 151:0.156818 152:1 153:0.728389 154:0.830416 155:0.0743449 156:-1 157:0.156237 158:1 159:0.731295 160:0.83283 161:0.0698559 162:-1 163:0.154364 164:1 165:0.733029 166:0.833726 167:0.0701728 168:-1 169:0.152947 170:1 171:0.73358 172:0.830881 173:0.07041 174:-1 175:0.15217 176:1 177:0.727786 178:0.826504 179:0.0692313 180:-1 181:0.14951 182:0.910782 183:0.732002 184:0.839682 185:0.124975 186:-0.920784 187:0.152341 188:1 189:0.760514 190:0.854624 191:0.0987264 192:-1 193:0.153393 194:1 195:0.766097 196:0.859001 197:0.0971092 198:-1 199:0.152944 200:1 201:0.771078 202:0.863144 203:0.0996156 204:-1 205:0.150906 206:1 207:0.778117 208:0.868335 209:0.1048 210:-1 211:0.157382 212:1 213:0.774143 214:0.86407 215:0.105495 216:-1 
0.06390010949503094 0 0 0.01055605169854629 0 1:0.254017 2:0.772585 3:-0.470241 4:-0.0649874 5:-0.628609 6:-0.873645 7:0.264034 8:0.968368 9:-0.536477 10:-0.118581 11:-0.742108 12:-0.98847 13:0.253317 14:0.997156 15:-0.526967 16:-0.10141 17:-0.741711 18:-0.998801 19:0.249036 20:0.999758 21:-0.527799 22:-0.0966113 23:-0.737087 24:-0.999881 25:0.256175 26:0.999924 27:-0.517491 28:-0.0949898 29:-0.734504 30:-0.99996 31:0.255749 32:0.999873 33:-0.508444 34:-0.0969542 35:-0.729944 36:-0.999934 37:0.267527 38:0.781337 39:-0.444779 40:-0.0394602 41:-0.626585 42:-0.868365 43:0.260689 44:0.985023 45:-0.531681 46:-0.101113 47:-0.739138 48:-0.993861 49:0.250931 50:0.999924 51:-0.527652 52:-0.0951138 53:-0.740805 54:-0.999961 55:0.249379 56:0.999924 57:-0.52747 58:-0.0916459 59:-0.737012 60:-0.999961 61:0.257043 62:0.999924 63:-0.540104 64:-0.0938732 65:-0.737221 66:-0.999961 67:0.258672 68:0.999899 69:-0.558345 70:-0.0982289 71:-0.735115 72:-0.999947 73:0.253552 74:0.788651 75:-0.43682 76:-0.041253 77:-0.618689 78:-0.868011 79:0.260517 80:0.988779 81:-0.528054 82:-0.0965189 83:-0.737626 84:-0.995181 85:0.251655 86:0.999924 87:-0.528353 88:-0.092156 89:-0.740161 90:-0.999961 91:0.250117 92:0.999924 93:-0.529924 94:-0.0891552 95:-0.736936 96:-0.999961 97:0.259747 98:0.999924 99:-0.543122 100:-0.0916661 101:-0.738514 102:-0.999961 103:0.259646 104:0.999899 105:-0.558731 106:-0.0938817 107:-0.737015 108:-0.999947 109:0.250177 110:0.791464 111:-0.431432 112:-0.0382921 113:-0.619751 114:-0.869301 115:0.260768 116:0.990653 117:-0.507223 118:-0.092427 119:-0.738225 120:-0.995893 121:0.255348 122:0.999975 123:-0.516324 124:-0.090244 125:-0.743184 126:-0.999987 127:0.254572 128:1 129:-0.517691 130:-0.0881187 131:-0.741163 132:-1 133:0.255784 134:1 135:-0.51822 136:-0.089334 137:-0.741935 138:-1 139:0.260273 140:0.999975 141:-0.524412 142:-0.0889052 143:-0.740766 144:-0.999987 145:0.234138 146:0.743178 147:-0.441357 148:-0.0503381 149:-0.591148 150:-0.854712 151:0.247791 152:0.939074 153:-0.517489 154:-0.0980853 155:-0.702633 156:-0.976552 157:0.248252 158:0.960434 159:-0.523716 160:-0.0962324 161:-0.710055 162:-0.985192 163:0.24684 164:0.966392 165:-0.521567 166:-0.0949181 167:-0.711547 168:-0.987303 169:0.245997 170:0.973117 171:-0.520181 172:-0.094753 173:-0.713803 174:-0.989676 175:0.246184 176:0.979312 177:-0.524807 178:-0.0942674 179:-0.71672 180:-0.991809 181:0.0635456 182:0.593044 183:-0.500281 184:-0.170474 185:-0.534838 186:-0.759859 187:0.0655213 188:0.747597 189:-0.569824 190:-0.205408 191:-0.615977 192:-0.842449 193:0.065415 194:0.765757 195:-0.567679 196:-0.201102 197:-0.618543 198:-0.843183 199:0.0662447 200:0.758449 201:-0.556504 202:-0.19275 203:-0.614084 204:-0.839191 205:0.0688845 206:0.757976 207:-0.553236 208:-0.18874 209:-0.613756 210:-0.840936 211:0.0818143 212:0.759222 213:-0.558019 214:-0.186873 215:-0.615925 216:-0.843582 
1.462820084519253 0.829664944724896 0.7264755844532254 0.5913812445861522 0.08423128390625158 1:0.0956922 2:-0.324326 3:-0.47441 4:-0.0784561 5:-0.302495 6:-0.392195 7:0.0868557 8:-0.304612 9:-0.489711 10:-0.0954557 11:-0.319858 12:-0.393582 13:0.0583921 14:-0.273188 15:-0.492216 16:-0.0952413 17:-0.327235 18:-0.394525 19:0.0281898 20:-0.251688 21:-0.490196 22:-0.0994619 23:-0.340236 24:-0.392851 25:0.0220106 26:-0.237672 27:-0.473882 28:-0.103778 29:-0.350528 30:-0.387646 31:0.0423038 32:-0.252841 33:-0.371771 34:-0.0487341 35:-0.297762 36:-0.306404 37:0.14532 38:-0.101238 39:-0.447134 40:-0.0510408 41:-0.37604 42:-0.461928 43:0.121983 44:-0.0778032 45:-0.464614 46:-0.0626715 47:-0.376983 48:-0.466391 49:0.10219 50:-0.0449802 51:-0.464793 52:-0.0669324 53:-0.387831 54:-0.472566 55:0.0936822 56:-0.0211832 57:-0.462221 58:-0.0709982 59:-0.401641 60:-0.474822 61:0.0966334 62:-0.0068785 63:-0.465444 64:-0.0758447 65:-0.411649 66:-0.470934 67:0.114787 68:-0.0352539 69:-0.421154 70:-0.0423991 71:-0.377707 72:-0.412248 73:0.240817 74:0.120137 75:-0.519984 76:-0.107028 77:-0.517748 78:-0.618612 79:0.248459 80:0.141684 81:-0.54622 82:-0.112122 83:-0.526365 84:-0.628176 85:0.256463 86:0.164853 87:-0.553452 88:-0.111847 89:-0.536594 90:-0.639955 91:0.269885 92:0.173537 93:-0.550767 94:-0.10489 95:-0.540803 96:-0.642845 97:0.28956 98:0.172945 99:-0.556436 100:-0.101598 101:-0.54401 102:-0.640956 103:0.309119 104:0.129258 105:-0.524149 106:-0.0690958 107:-0.510914 108:-0.590296 109:0.296549 110:0.213925 111:-0.467705 112:-0.0655531 113:-0.536075 114:-0.640805 115:0.296673 116:0.217925 117:-0.478543 118:-0.0710309 119:-0.53895 120:-0.641499 121:0.290739 122:0.226539 123:-0.491146 124:-0.0716282 125:-0.54321 126:-0.646904 127:0.291601 128:0.22683 129:-0.490785 130:-0.0681651 131:-0.543624 132:-0.64817 133:0.294588 134:0.224351 135:-0.489438 136:-0.0680999 137:-0.54548 138:-0.645878 139:0.309744 140:0.182443 141:-0.469494 142:-0.048627 143:-0.522657 144:-0.605284 145:0.30071 146:0.201248 147:-0.440791 148:-0.0472999 149:-0.530627 150:-0.628223 151:0.301871 152:0.197746 153:-0.461963 154:-0.0565389 155:-0.534284 156:-0.627237 157:0.300838 158:0.204183 159:-0.475665 160:-0.0606606 161:-0.539496 162:-0.632521 163:0.298833 164:0.211972 165:-0.478711 166:-0.0631969 167:-0.543344 168:-0.638881 169:0.298079 170:0.217631 171:-0.482239 172:-0.0667408 173:-0.547584 174:-0.641262 175:0.305271 176:0.19002 177:-0.473562 178:-0.0565975 179:-0.534975 180:-0.615183 181:0.302063 182:0.199183 183:-0.417938 184:-0.0366192 185:-0.531504 186:-0.628738 187:0.300907 188:0.197779 189:-0.45822 190:-0.0527839 191:-0.535291 192:-0.626127 193:0.302211 194:0.205157 195:-0.473633 196:-0.0590539 197:-0.542184 198:-0.632574 199:0.301498 200:0.217224 201:-0.47994 202:-0.0630373 203:-0.547909 204:-0.640677 205:0.299464 206:0.227895 207:-0.484415 208:-0.0655734 209:-0.553022 210:-0.646072 211:0.313449 212:0.213012 213:-0.487726 214:-0.0651978 215:-0.550878 216:-0.633172 
0.0349136062394178 0 0.1321460189486292 0.05079938115688475 0 1:0.145315 2:0.940787 3:-0.261012 4:0.0250729 5:-0.405282 6:-0.988094 7:0.19634 8:0.987355 9:-0.160111 10:0.162522 11:-0.443606 12:-0.992937 13:0.194237 14:0.997994 15:-0.115453 16:0.204964 17:-0.447684 18:-0.998959 19:0.193369 20:0.999975 21:-0.111965 22:0.21243 23:-0.451934 24:-0.999987 25:0.201825 26:0.999911 27:-0.103893 28:0.214757 29:-0.45342 30:-0.999947 31:0.204214 32:0.999911 33:-0.100321 34:0.210683 35:-0.458985 36:-0.999947 37:0.136291 38:0.959538 39:-0.186585 40:0.0658973 41:-0.360106 42:-0.987174 43:0.193005 44:0.992132 45:-0.134053 46:0.193369 47:-0.423015 48:-0.995096 49:0.191283 50:1 51:-0.125142 52:0.201475 53:-0.445855 54:-1 55:0.19311 56:1 57:-0.1216 58:0.20655 59:-0.451894 60:-1 61:0.201605 62:1 63:-0.128454 64:0.206532 65:-0.455425 66:-1 67:0.205516 68:1 69:-0.144826 70:0.200347 71:-0.462176 72:-1 73:0.135467 74:0.991552 75:-0.139367 76:0.0794683 77:-0.333443 78:-0.994604 79:0.196059 80:0.998381 81:-0.12225 82:0.203376 83:-0.428787 84:-0.998841 85:0.194315 86:1 87:-0.115229 88:0.210968 89:-0.449344 90:-1 91:0.195707 92:1 93:-0.115077 94:0.214247 95:-0.455278 96:-1 97:0.2057 98:1 99:-0.125621 100:0.211443 101:-0.460265 102:-1 103:0.20761 104:1 105:-0.141854 106:0.206028 107:-0.467088 108:-1 109:0.134566 110:1 111:-0.129739 112:0.0928675 113:-0.329727 114:-1 115:0.195779 116:1 117:-0.0993844 118:0.211832 119:-0.425156 120:-1 121:0.196675 122:1 123:-0.0943359 124:0.221763 125:-0.44472 126:-1 127:0.198844 128:1 129:-0.0953894 130:0.22506 131:-0.451716 132:-1 133:0.201048 134:1 135:-0.0977583 136:0.220858 137:-0.457804 138:-1 139:0.207171 140:1 141:-0.107505 142:0.216862 143:-0.465035 144:-1 145:0.136856 146:1 147:-0.0838486 148:0.136596 149:-0.310524 150:-1 151:0.193916 152:1 153:-0.0551612 154:0.246577 155:-0.403633 156:-1 157:0.198745 158:1 159:-0.0538362 160:0.251612 161:-0.423481 162:-1 163:0.198786 164:1 165:-0.0539947 166:0.251176 167:-0.43032 168:-1 169:0.198965 170:1 171:-0.0613423 172:0.244001 173:-0.438587 174:-1 175:0.199982 176:1 177:-0.0725416 178:0.238189 179:-0.447457 180:-1 181:0.135466 182:0.998922 183:0.000456974 184:0.205057 185:-0.275256 186:-0.999473 187:0.187097 188:0.999456 189:0.041611 190:0.319365 191:-0.35011 192:-0.999631 193:0.192253 194:1 195:0.0412221 196:0.322211 197:-0.365985 198:-1 199:0.193511 200:1 201:0.0359237 202:0.318878 203:-0.37318 204:-1 205:0.193516 206:1 207:0.0295551 208:0.314616 209:-0.381364 210:-1 211:0.202294 212:1 213:0.0172669 214:0.30669 215:-0.390514 216:-1 
0 0.2942607004468542 0 0 0 1:0.123566 2:0.771566 3:-0.197201 4:0.108044 5:-0.325296 6:-0.84537 7:0.170039 8:0.962599 9:-0.19657 10:0.135354 11:-0.361059 12:-0.979339 13:0.161947 14:0.985653 15:-0.198966 16:0.142789 17:-0.365715 18:-0.992028 19:0.160608 20:0.995244 21:-0.209091 22:0.140248 23:-0.375129 24:-0.997378 25:0.170337 26:0.999326 27:-0.206603 28:0.137837 29:-0.3852 30:-0.999631 31:0.17548 32:0.999975 33:-0.205682 34:0.131264 35:-0.401101 36:-0.999987 37:0.13793 38:0.801962 39:-0.226161 40:0.091566 41:-0.348803 42:-0.864847 43:0.166833 44:0.984833 45:-0.210055 46:0.137083 47:-0.362621 48:-0.991612 49:0.160498 50:0.996228 51:-0.198965 52:0.147079 53:-0.366975 54:-0.99787 55:0.162391 56:0.998874 57:-0.204572 58:0.14559 59:-0.377038 60:-0.99937 61:0.172195 62:0.999406 63:-0.21785 64:0.141294 65:-0.387674 66:-0.999672 67:0.178115 68:1 69:-0.238281 70:0.132869 71:-0.402316 72:-1 73:0.120747 74:0.818851 75:-0.243557 76:0.071884 77:-0.347308 78:-0.879502 79:0.165824 80:0.988172 81:-0.215363 82:0.134563 83:-0.359527 84:-0.993456 85:0.16102 86:0.997066 87:-0.202291 88:0.147087 89:-0.366139 90:-0.998356 91:0.163595 92:0.999204 93:-0.205781 94:0.14791 95:-0.377631 96:-0.999554 97:0.175135 98:0.999533 99:-0.216102 100:0.145753 101:-0.388366 102:-0.999738 103:0.179303 104:1 105:-0.232923 106:0.140511 107:-0.402499 108:-1 109:0.127523 110:0.837776 111:-0.261155 112:0.0609141 113:-0.355977 114:-0.897507 115:0.164654 116:0.995776 117:-0.205423 118:0.132724 119:-0.359595 120:-0.997762 121:0.163655 122:0.999393 123:-0.192192 124:0.149411 125:-0.367349 126:-0.999672 127:0.167418 128:1 129:-0.192238 130:0.153237 131:-0.379296 132:-1 133:0.171682 134:1 135:-0.191521 136:0.151685 137:-0.391283 138:-1 139:0.180117 140:1 141:-0.199403 142:0.149462 143:-0.405113 144:-1 145:0.141613 146:0.852201 147:-0.248927 148:0.0717527 149:-0.363177 150:-0.907155 151:0.165927 152:0.997572 153:-0.194022 154:0.143109 155:-0.360039 156:-0.998697 157:0.169164 158:0.999519 159:-0.181472 160:0.157125 161:-0.368428 162:-0.999737 163:0.171449 164:1 165:-0.179961 166:0.157936 167:-0.381923 168:-1 169:0.173729 170:1 171:-0.180351 172:0.156139 173:-0.394685 174:-1 175:0.176748 176:1 177:-0.185955 178:0.15482 179:-0.407418 180:-1 181:0.158389 182:0.866385 183:-0.21998 184:0.0875618 185:-0.374963 186:-0.911711 187:0.165582 188:0.998911 189:-0.172434 190:0.159998 191:-0.358793 192:-0.999421 193:0.170059 194:0.999874 195:-0.164494 196:0.169872 197:-0.367504 198:-0.999934 199:0.173888 200:1 201:-0.166741 202:0.168837 203:-0.38202 204:-1 205:0.176432 206:1 207:-0.16928 208:0.167535 209:-0.397064 210:-1 211:0.187553 212:1 213:-0.175859 214:0.164468 215:-0.411669 216:-1 
0 1.10326090283299 0 0 0 1:-0.429609 2:0.10352 3:-0.35853 4:-0.274941 5:-0.102699 6:-0.331503 7:-0.283608 8:0.224827 9:-0.204377 10:-0.0925601 11:-0.0899987 12:-0.416483 13:-0.146668 14:0.358061 15:-0.042284 16:0.102449 17:-0.0605786 18:-0.502395 19:0.000165523 20:0.530741 21:0.0899021 22:0.267936 23:-0.054153 24:-0.623548 25:0.0965328 26:0.767165 27:0.0340732 28:0.268887 29:-0.184783 30:-0.837351 31:0.108937 32:0.797488 33:0.0294438 34:0.258102 35:-0.19577 36:-0.855288 37:-0.389382 38:0.124712 39:-0.316009 40:-0.216903 41:-0.100364 42:-0.3453 43:-0.243233 44:0.304136 45:-0.131344 46:-0.0038335 47:-0.0584107 48:-0.46104 49:-0.101355 50:0.498427 51:0.068774 52:0.211865 53:-0.0176938 54:-0.575095 55:0.0572611 56:0.71695 57:0.214374 58:0.397283 59:-0.0115816 60:-0.738409 61:0.149806 62:0.976267 63:0.141189 64:0.403292 65:-0.152545 66:-0.983389 67:0.151862 68:0.995899 69:0.11882 70:0.390709 71:-0.160849 72:-0.997419 73:-0.390081 74:0.171681 75:-0.32594 76:-0.240995 77:-0.109466 78:-0.366653 79:-0.240952 80:0.359208 81:-0.141764 82:-0.0204298 83:-0.0722903 84:-0.486704 85:-0.0992268 86:0.539643 87:0.0581529 88:0.200558 89:-0.0325094 90:-0.601055 91:0.0618083 92:0.755661 93:0.195142 94:0.384073 95:-0.029893 96:-0.773013 97:0.151654 98:0.994126 99:0.139958 100:0.404256 101:-0.155435 102:-0.995871 103:0.152284 104:1 105:0.124002 106:0.397291 107:-0.159989 108:-1 109:-0.387493 110:0.230928 111:-0.33691 112:-0.263832 113:-0.121964 114:-0.385409 115:-0.235583 116:0.398361 117:-0.145127 118:-0.0379809 119:-0.0888475 120:-0.507092 121:-0.0929103 122:0.556026 123:0.0475181 124:0.190759 125:-0.0514678 126:-0.620451 127:0.0705914 128:0.778137 129:0.169932 130:0.367297 131:-0.0552531 132:-0.80092 133:0.147681 134:0.998762 135:0.143473 136:0.398824 137:-0.16388 138:-0.999165 139:0.15263 140:1 141:0.137107 142:0.396264 143:-0.167082 144:-1 145:-0.385864 146:0.270182 147:-0.344479 148:-0.28294 149:-0.135115 150:-0.400533 151:-0.23374 152:0.433304 153:-0.154724 154:-0.0537913 155:-0.102554 156:-0.521371 157:-0.0869579 158:0.580153 159:0.0425541 160:0.18011 161:-0.0667582 162:-0.632915 163:0.0778553 164:0.798253 165:0.163848 166:0.355679 167:-0.0776598 168:-0.820107 169:0.15074 170:0.9988 171:0.153508 172:0.402623 173:-0.173074 174:-0.999189 175:0.150686 176:1 177:0.149454 178:0.401377 179:-0.175461 180:-1 181:-0.386191 182:0.292715 183:-0.319302 184:-0.285932 185:-0.12508 186:-0.397142 187:-0.239262 188:0.478228 189:-0.170063 190:-0.0784424 191:-0.109112 192:-0.530285 193:-0.0907242 194:0.613094 195:0.0243496 196:0.158108 197:-0.0768375 198:-0.645103 199:0.0785469 200:0.815891 201:0.141256 202:0.339525 203:-0.0884708 204:-0.836886 205:0.151059 206:0.999633 207:0.150289 208:0.403924 209:-0.172731 210:-0.999751 211:0.160103 212:1 213:0.155258 214:0.408309 215:-0.177014 216:-1 
0.9116965885747683 0.4826013069685608 0.1087004219206144 0.08409652001187905 0 1:-0.37454 2:0.227307 3:-0.76056 4:-0.494608 5:-0.546787 6:-0.511455 7:-0.245606 8:0.245187 9:-0.800822 10:-0.447922 11:-0.55734 12:-0.57488 13:-0.205085 14:0.247554 15:-0.800515 16:-0.420559 17:-0.556015 18:-0.584872 19:-0.169355 20:0.207945 21:-0.813421 22:-0.403522 23:-0.555093 24:-0.596139 25:-0.129379 26:0.160539 27:-0.823161 28:-0.396482 29:-0.56071 30:-0.61659 31:-0.100759 32:0.120758 33:-0.831838 34:-0.395326 35:-0.566131 36:-0.640362 37:-0.184 38:0.480745 39:-0.866326 40:-0.531034 41:-0.658941 42:-0.658541 43:-0.0513427 44:0.531559 45:-0.919584 46:-0.472451 47:-0.667812 48:-0.752396 49:-0.0466524 50:0.557768 51:-0.90196 52:-0.448384 53:-0.667803 54:-0.757257 55:-0.0368067 56:0.54732 57:-0.903121 58:-0.435203 59:-0.669118 60:-0.761929 61:-0.0148134 62:0.521236 63:-0.923375 64:-0.42841 65:-0.672792 66:-0.770738 67:0.00575593 68:0.491422 69:-0.945454 70:-0.419969 71:-0.671293 72:-0.779402 73:-0.00579803 74:0.654969 75:-0.930711 76:-0.525901 77:-0.718554 78:-0.784306 79:0.168514 80:0.731938 81:-0.992723 82:-0.45026 83:-0.740297 84:-0.905747 85:0.172891 86:0.782531 87:-0.978592 88:-0.431661 89:-0.74816 90:-0.915111 91:0.179645 92:0.80076 93:-0.97914 94:-0.426111 95:-0.757872 96:-0.919035 97:0.195699 98:0.803168 99:-0.99085 100:-0.42412 101:-0.766573 102:-0.920626 103:0.200737 104:0.799855 105:-1 106:-0.417491 107:-0.767335 108:-0.920716 109:0.0579521 110:0.825037 111:-0.962663 112:-0.543428 113:-0.77403 114:-0.853127 115:0.23659 116:0.915208 117:-1 118:-0.460051 119:-0.794893 120:-0.979174 121:0.236923 122:0.971511 123:-1 124:-0.447861 125:-0.808918 126:-0.992206 127:0.243695 128:0.994982 129:-1 130:-0.445798 131:-0.8237 132:-0.998593 133:0.251915 134:0.998636 135:-1 136:-0.444762 137:-0.83567 138:-0.999583 139:0.260451 140:0.998558 141:-1 142:-0.437709 143:-0.839226 144:-0.99954 145:0.0776804 146:0.83779 147:-0.960265 148:-0.538488 149:-0.778012 150:-0.86101 151:0.237128 152:0.925781 153:-1 154:-0.457442 155:-0.796605 156:-0.981107 157:0.242145 158:0.975406 159:-1 160:-0.448817 161:-0.811391 162:-0.993233 163:0.24792 164:0.997725 165:-1 166:-0.449052 167:-0.827929 168:-0.999386 169:0.254041 170:0.999899 171:-1 172:-0.448996 173:-0.840402 174:-0.999974 175:0.257053 176:1 177:-1 178:-0.443578 179:-0.844735 180:-1 181:0.0923622 182:0.826251 183:-0.943107 184:-0.531601 185:-0.779879 186:-0.863182 187:0.235539 188:0.918888 189:-1 190:-0.456166 191:-0.796471 192:-0.979062 193:0.241334 194:0.975707 195:-1 196:-0.448843 197:-0.811675 198:-0.993315 199:0.24826 200:0.998015 201:-1 202:-0.44806 203:-0.827144 204:-0.999463 205:0.254163 206:0.999899 207:-1 208:-0.446958 209:-0.839358 210:-0.999974 211:0.266047 212:1 213:-1 214:-0.442448 215:-0.844618 216:-1 
0 0.353261935828118 0.1580113996986984 0.1554389522628738 0.319875833121074 1:-0.123096 2:-0.100235 3:-0.879579 4:-0.411541 5:-0.53704 6:-0.655997 7:-0.141881 8:-0.0649536 9:-0.929957 10:-0.448109 11:-0.555539 12:-0.663625 13:-0.149151 14:-0.0216532 15:-0.96584 16:-0.467627 17:-0.56833 18:-0.677681 19:-0.159373 20:0.0156788 21:-1 22:-0.490303 23:-0.584393 24:-0.69406 25:-0.159931 26:0.0301197 27:-1 28:-0.501514 29:-0.593563 30:-0.701716 31:-0.16779 32:0.0144787 33:-0.980058 34:-0.499563 35:-0.590134 36:-0.695982 37:0.0161785 38:0.230521 39:-0.888602 40:-0.399267 41:-0.619427 42:-0.754183 43:-0.0157169 44:0.207967 45:-0.907779 46:-0.405747 47:-0.600126 48:-0.742996 49:-0.0273894 50:0.191787 51:-0.911751 52:-0.407102 53:-0.593428 54:-0.73748 55:-0.0299169 56:0.18708 57:-0.91862 58:-0.409653 59:-0.589565 60:-0.737687 61:-0.0237942 62:0.196379 63:-0.940676 64:-0.417644 65:-0.594917 66:-0.741297 67:-0.0233683 68:0.209125 69:-0.968616 70:-0.426224 71:-0.602738 72:-0.744883 73:0.127915 74:0.593091 75:-0.894373 76:-0.399358 77:-0.691963 78:-0.863381 79:0.106541 80:0.558767 81:-0.90615 82:-0.392788 83:-0.672085 84:-0.850562 85:0.0937472 86:0.535078 87:-0.910187 88:-0.390739 89:-0.662822 90:-0.841703 91:0.0878369 92:0.52563 93:-0.915832 94:-0.390446 95:-0.656515 96:-0.83942 97:0.0963332 98:0.531365 99:-0.937774 100:-0.397202 101:-0.660155 102:-0.841894 103:0.0978247 104:0.546979 105:-0.968716 106:-0.407576 107:-0.671053 108:-0.847373 109:0.240824 110:0.904068 111:-0.897922 112:-0.388886 113:-0.768319 114:-0.970449 115:0.232537 116:0.863667 117:-0.882077 118:-0.372077 119:-0.74254 120:-0.957519 121:0.224052 122:0.837981 123:-0.891639 124:-0.367741 125:-0.732422 126:-0.949798 127:0.220648 128:0.833824 129:-0.894863 130:-0.367829 131:-0.72693 132:-0.949227 133:0.221344 134:0.845754 135:-0.907332 136:-0.376397 137:-0.732323 138:-0.953165 139:0.228149 140:0.867883 141:-0.931808 142:-0.387696 143:-0.744688 144:-0.960209 145:0.241905 146:0.933828 147:-0.886616 148:-0.38311 149:-0.774163 150:-0.978492 151:0.233701 152:0.902812 153:-0.874162 154:-0.363677 155:-0.748632 156:-0.968165 157:0.230007 158:0.885134 159:-0.875163 160:-0.356402 161:-0.73864 162:-0.962433 163:0.225207 164:0.882241 165:-0.872653 166:-0.35479 167:-0.732584 168:-0.96178 169:0.223794 170:0.895082 171:-0.884075 172:-0.363411 173:-0.738169 174:-0.965835 175:0.225322 176:0.919918 177:-0.908848 178:-0.376573 179:-0.751921 180:-0.973822 181:0.242109 182:0.928474 183:-0.863224 184:-0.37608 185:-0.773842 186:-0.976896 187:0.231027 188:0.900705 189:-0.870264 190:-0.359572 191:-0.747687 192:-0.967381 193:0.229677 194:0.884314 195:-0.86848 196:-0.351449 197:-0.738104 198:-0.961981 199:0.227253 200:0.880514 201:-0.866331 202:-0.349099 203:-0.732721 204:-0.960855 205:0.225503 206:0.89428 207:-0.877274 208:-0.356176 209:-0.737907 210:-0.965289 211:0.235199 212:0.919222 213:-0.901824 214:-0.370149 215:-0.751669 216:-0.97336 
0 0.04685374081040607 0.04941428339911396 0.02930048231414836 0 1:-0.609943 2:0.154927 3:0.102911 4:-0.159378 5:-0.0844746 6:0.126696 7:-0.549781 8:0.18125 9:0.102787 10:-0.123158 11:-0.104902 12:0.0805031 13:-0.530138 14:0.187908 15:0.086429 16:-0.116144 17:-0.101406 18:0.0593049 19:-0.51717 20:0.163185 21:0.0682511 22:-0.102699 23:-0.0889408 24:0.0425037 25:-0.502169 26:0.134887 27:0.0489596 28:-0.0968701 29:-0.0852547 30:0.0231197 31:-0.488516 32:0.1108 33:0.0359082 34:-0.0961799 35:-0.0805918 36:0.00979513 37:-0.405307 38:0.352568 39:-0.132116 40:-0.205579 41:-0.260446 42:-0.181321 43:-0.335202 44:0.422542 45:-0.115034 46:-0.138531 47:-0.272664 48:-0.244646 49:-0.329944 50:0.437593 51:-0.0895829 52:-0.122524 53:-0.264059 54:-0.24392 55:-0.324471 56:0.426953 57:-0.0726454 58:-0.102647 59:-0.246238 60:-0.238261 61:-0.315316 62:0.41515 63:-0.0750059 64:-0.0951742 65:-0.237522 66:-0.235513 67:-0.309301 68:0.403765 69:-0.0864993 70:-0.0952737 71:-0.234151 72:-0.23149 73:-0.208639 74:0.534819 75:-0.325248 76:-0.227749 77:-0.365748 78:-0.468748 79:-0.113373 80:0.640097 81:-0.320049 82:-0.135533 83:-0.403937 84:-0.572148 85:-0.110566 86:0.65479 87:-0.290602 88:-0.115751 89:-0.398806 90:-0.569571 91:-0.108022 92:0.649019 93:-0.266673 94:-0.0951303 95:-0.385861 96:-0.559941 97:-0.0985756 98:0.641087 99:-0.260356 100:-0.0864417 101:-0.379475 102:-0.550651 103:-0.0956698 104:0.632708 105:-0.262917 106:-0.0837155 107:-0.378807 108:-0.540792 109:-0.00537857 110:0.678377 111:-0.471412 112:-0.199805 113:-0.419533 114:-0.71847 115:0.114373 116:0.813594 117:-0.461143 118:-0.0857109 119:-0.475024 120:-0.861802 121:0.117587 122:0.828738 123:-0.443108 124:-0.0640332 125:-0.476025 126:-0.866949 127:0.12012 128:0.828882 129:-0.428469 130:-0.0503223 131:-0.474131 132:-0.865351 133:0.122882 134:0.82274 135:-0.41837 136:-0.0445345 137:-0.474519 138:-0.860851 139:0.129168 140:0.813207 141:-0.417306 142:-0.0394626 143:-0.476277 144:-0.853681 145:0.071393 146:0.834977 147:-0.522366 148:-0.220162 149:-0.504444 150:-0.836003 151:0.195062 152:0.993031 153:-0.519805 154:-0.0996383 155:-0.572675 156:-0.997683 157:0.197855 158:1 159:-0.498982 160:-0.077922 161:-0.574172 162:-1 163:0.197922 164:1 165:-0.485218 166:-0.0680128 167:-0.574926 168:-1 169:0.198457 170:0.999924 171:-0.477039 172:-0.0629017 173:-0.57707 174:-0.999961 175:0.199665 176:0.999924 177:-0.477563 178:-0.059539 179:-0.580506 180:-0.999961 181:0.0833562 182:0.837369 183:-0.507329 184:-0.21126 185:-0.516702 186:-0.841766 187:0.196945 188:0.994492 189:-0.519121 190:-0.0981277 191:-0.58359 192:-0.998077 193:0.200758 194:1 195:-0.501981 196:-0.0800465 197:-0.585294 198:-1 199:0.20256 200:1 201:-0.490019 202:-0.0704996 203:-0.586595 204:-1 205:0.202782 206:1 207:-0.482225 208:-0.0639535 209:-0.588361 210:-1 211:0.211913 212:1 213:-0.482228 214:-0.0611495 215:-0.591514 216:-1 
0.2235554394349573 0 0.2711199738714412 0.2831383767615746 0 1:-0.538859 2:0.576419 3:-0.350831 4:-0.435911 5:-0.26043 6:-0.314332 7:-0.372204 8:0.60165 9:-0.17065 10:-0.208799 11:-0.220607 12:-0.398075 13:-0.20683 14:0.635343 15:-0.00229046 16:0.0209693 17:-0.17906 18:-0.49495 19:-0.0424884 20:0.681896 21:0.142327 22:0.235568 23:-0.146728 24:-0.61099 25:0.0463601 26:0.819028 27:0.200477 28:0.303599 29:-0.192191 30:-0.724329 31:0.0555919 32:0.839494 33:0.195126 34:0.287498 35:-0.213272 36:-0.734029 37:-0.497304 38:0.529167 39:-0.21667 40:-0.316275 41:-0.218156 42:-0.280401 43:-0.31163 44:0.605061 45:-0.0614779 46:-0.0710295 47:-0.178414 48:-0.440163 49:-0.127385 50:0.688639 51:0.0862109 52:0.171593 53:-0.153615 54:-0.612532 55:0.0647072 56:0.802771 57:0.188657 58:0.388567 59:-0.146688 60:-0.814379 61:0.171012 62:0.983208 63:0.191599 64:0.440093 65:-0.220009 66:-0.98591 67:0.175154 68:0.998102 69:0.157178 70:0.418405 71:-0.24095 72:-0.998775 73:-0.502701 74:0.465767 75:-0.0860651 76:-0.247378 77:-0.163003 78:-0.207105 79:-0.31214 80:0.574859 81:0.0398275 82:-0.0114001 83:-0.148057 84:-0.393333 85:-0.123069 86:0.690288 87:0.154408 88:0.214553 89:-0.14313 90:-0.59561 91:0.0735073 92:0.831537 93:0.22281 94:0.414865 95:-0.157748 96:-0.827614 97:0.178486 98:0.998535 99:0.213052 100:0.457323 101:-0.236448 102:-0.998676 103:0.180157 104:0.999987 105:0.184266 106:0.440646 107:-0.249838 108:-0.999987 109:-0.5115 110:0.38054 111:0.0374167 112:-0.162973 113:-0.108328 114:-0.12496 115:-0.316632 116:0.521198 117:0.144397 118:0.055727 119:-0.112885 120:-0.337208 121:-0.121961 122:0.665758 123:0.221284 124:0.261437 125:-0.127244 126:-0.567611 127:0.0793258 128:0.832168 129:0.255986 130:0.441098 131:-0.158127 132:-0.82443 133:0.175842 134:1 135:0.238816 136:0.469162 137:-0.241252 138:-1 139:0.181187 140:1 141:0.217052 142:0.454898 143:-0.251972 144:-1 145:-0.517427 146:0.309723 147:0.142743 148:-0.082973 149:-0.049498 150:-0.0548727 151:-0.31963 152:0.477547 153:0.214739 154:0.111465 155:-0.0722143 156:-0.292024 157:-0.11897 158:0.648587 159:0.262221 160:0.293583 161:-0.104205 162:-0.546482 163:0.0839018 164:0.83425 165:0.277501 166:0.453509 167:-0.149734 168:-0.823843 169:0.175544 170:1 171:0.248794 172:0.472971 173:-0.236772 174:-1 175:0.175531 176:1 177:0.227034 178:0.458405 179:-0.247079 180:-1 181:-0.53132 182:0.227635 183:0.215129 184:-0.0300001 185:0.00137133 186:0.0110576 187:-0.339285 188:0.408448 189:0.245512 190:0.129852 191:-0.0303507 192:-0.227417 193:-0.142525 194:0.579303 195:0.265048 196:0.285829 197:-0.0715076 198:-0.483072 199:0.0560777 200:0.762445 201:0.256183 202:0.422659 203:-0.126463 204:-0.759316 205:0.142948 206:0.911917 207:0.225823 208:0.442005 209:-0.21104 210:-0.922815 211:0.14876 212:0.909338 213:0.205076 214:0.427303 215:-0.226176 216:-0.92403 
1.238024002054279 2.748135800874952 1.465896436982134 1.421977355422825 1.388570107109442 1:-0.634016 2:-0.128402 3:0.650588 4:-0.0397847 5:0.730208 6:0.742545 7:-0.663054 8:-0.0151995 9:0.937906 10:-0.00786624 11:0.901722 12:0.957584 13:-0.684102 14:0.0640327 15:0.941683 16:-0.0779489 17:0.905453 18:0.969521 19:-0.689161 20:0.0505589 21:0.95659 22:-0.0592748 23:0.911262 24:0.985057 25:-0.686635 26:0.021692 27:0.968998 28:-0.025031 29:0.920969 30:0.994307 31:-0.686194 32:0.0104982 33:0.962684 34:-0.0172281 35:0.915065 36:0.987858 37:-0.634798 38:-0.113254 39:0.597949 40:-0.0870767 41:0.644427 42:0.708141 43:-0.675851 44:0.0182265 45:0.890267 46:-0.0555094 47:0.84453 48:0.929547 49:-0.692424 50:0.0865996 51:0.90993 52:-0.113051 53:0.848604 54:0.943575 55:-0.693891 56:0.0815059 57:0.933539 58:-0.0984222 59:0.858207 60:0.95771 61:-0.691445 62:0.0653837 63:0.941603 64:-0.0774112 65:0.86451 66:0.965806 67:-0.697552 68:0.0857396 69:0.899938 70:-0.100893 71:0.814758 72:0.942645 73:-0.503981 74:-0.0157244 75:0.46505 76:-0.0410394 77:0.480292 78:0.442165 79:-0.51194 80:0.140242 81:0.704757 82:0.00409659 83:0.625973 84:0.592229 85:-0.516622 86:0.197063 87:0.718021 88:-0.0383137 89:0.621121 90:0.593887 91:-0.514108 92:0.182006 93:0.736731 94:-0.0303203 95:0.630619 96:0.612498 97:-0.506523 98:0.160401 99:0.734147 100:-0.0226348 101:0.631848 102:0.624284 103:-0.526382 104:0.179687 105:0.675796 106:-0.0694404 107:0.569541 108:0.610915 109:-0.368723 110:0.146475 111:0.3464 112:0.025788 113:0.299586 114:0.138905 115:-0.343322 116:0.335462 117:0.548963 118:0.0823528 119:0.395495 120:0.205605 121:-0.34628 122:0.384107 123:0.557988 124:0.055044 125:0.390232 126:0.19953 127:-0.344312 128:0.366022 129:0.567924 130:0.0649125 131:0.403031 132:0.212946 133:-0.340712 134:0.350693 135:0.566556 136:0.0635167 137:0.404407 138:0.223068 139:-0.358044 140:0.369716 141:0.510995 142:0.0120755 143:0.342968 144:0.217187 145:-0.239775 146:0.31484 147:0.23626 148:0.102642 149:0.113436 150:-0.164314 151:-0.171634 152:0.523535 153:0.39434 154:0.173333 155:0.161402 156:-0.18309 157:-0.173744 158:0.566926 159:0.404134 160:0.158599 161:0.157677 162:-0.192064 163:-0.173558 164:0.552901 165:0.41752 166:0.162792 167:0.175017 168:-0.177954 169:-0.172232 170:0.54426 171:0.412129 172:0.154497 173:0.179368 174:-0.1693 175:-0.192588 176:0.564965 177:0.353786 178:0.0982159 179:0.118934 180:-0.176894 181:-0.116574 182:0.486301 183:0.142101 184:0.182922 185:-0.0668145 186:-0.468011 187:-0.00221115 188:0.715677 189:0.240859 190:0.263388 191:-0.0678977 192:-0.574611 193:-0.00333049 194:0.754325 195:0.251582 196:0.2591 197:-0.0702243 198:-0.586413 199:-0.00317085 200:0.74162 201:0.263267 202:0.262327 203:-0.0488682 204:-0.570861 205:-0.00318593 206:0.734549 207:0.258654 208:0.254918 209:-0.0410174 210:-0.563327 211:-0.0164906 212:0.749946 213:0.20102 214:0.199788 215:-0.0981859 216:-0.567934 
0 0 0.0714075137670883 0 0 1:0.114057 2:-0.293154 3:-0.446806 4:-0.0590316 5:-0.304925 6:-0.40072 7:0.107075 8:-0.328174 9:-0.462326 10:-0.0753464 11:-0.298108 12:-0.379548 13:0.100321 14:-0.364066 15:-0.462404 16:-0.0647731 17:-0.283745 18:-0.360145 19:0.105858 20:-0.385524 21:-0.46695 22:-0.0620055 23:-0.280575 24:-0.349115 25:0.119408 26:-0.381463 27:-0.467614 28:-0.0672917 29:-0.289691 30:-0.354479 31:0.124202 32:-0.358153 33:-0.468914 34:-0.0765287 35:-0.301712 36:-0.365834 37:0.208316 38:-0.0501326 39:-0.346573 40:0.0260192 41:-0.346487 42:-0.443283 43:0.187692 44:-0.0934132 45:-0.381418 46:0.00133542 47:-0.330558 48:-0.429133 49:0.179217 50:-0.137459 51:-0.392051 52:-0.00340807 53:-0.325173 54:-0.414524 55:0.180494 56:-0.165049 57:-0.406883 58:-0.0106627 59:-0.326917 60:-0.407134 61:0.188465 62:-0.164907 63:-0.436137 64:-0.0249054 65:-0.338757 66:-0.414206 67:0.18821 68:-0.12705 69:-0.474764 70:-0.0447844 71:-0.357963 72:-0.433886 73:0.264111 74:0.217631 75:-0.426866 76:-0.0362057 77:-0.513096 78:-0.624126 79:0.255572 80:0.151741 81:-0.45927 82:-0.0483557 83:-0.490243 84:-0.596271 85:0.247871 86:0.0861287 87:-0.468652 88:-0.0509145 89:-0.478057 90:-0.57061 91:0.24884 92:0.0459897 93:-0.485299 94:-0.0590008 95:-0.476843 96:-0.557464 97:0.256931 98:0.0433151 99:-0.519068 100:-0.0764569 101:-0.487893 102:-0.563639 103:0.251065 104:0.0992696 105:-0.565787 106:-0.10149 107:-0.51315 108:-0.593174 109:0.297544 110:0.439222 111:-0.423486 112:-0.03232 113:-0.604857 114:-0.733483 115:0.295067 116:0.35274 117:-0.436501 118:-0.0396666 119:-0.569972 120:-0.692892 121:0.293161 122:0.269102 123:-0.445478 124:-0.0378622 125:-0.547669 126:-0.655105 127:0.297534 128:0.210842 129:-0.458168 130:-0.0439764 131:-0.536815 132:-0.631997 133:0.299472 134:0.194768 135:-0.480622 136:-0.0615959 137:-0.539969 138:-0.629635 139:0.30107 140:0.257393 141:-0.527776 142:-0.0913721 143:-0.568201 144:-0.663395 145:0.294436 146:0.464346 147:-0.399853 148:-0.016464 149:-0.603231 150:-0.739738 151:0.293743 152:0.376729 153:-0.4245 154:-0.0286245 155:-0.572597 156:-0.69961 157:0.297708 158:0.293241 159:-0.434626 160:-0.0302805 161:-0.55309 162:-0.662112 163:0.300916 164:0.232346 165:-0.44532 166:-0.0384807 167:-0.54256 168:-0.637705 169:0.300096 170:0.214094 171:-0.470297 172:-0.0579241 173:-0.544973 174:-0.634837 175:0.295126 176:0.285897 177:-0.519598 178:-0.0904381 179:-0.575969 180:-0.673968 181:0.290851 182:0.471947 183:-0.376248 184:-0.004837 185:-0.597683 186:-0.744034 187:0.288416 188:0.393646 189:-0.424025 190:-0.0273244 191:-0.573703 192:-0.707391 193:0.294495 194:0.313901 195:-0.435423 196:-0.0307585 197:-0.556615 198:-0.671788 199:0.299502 200:0.257027 201:-0.449002 202:-0.0401328 203:-0.548446 204:-0.648692 205:0.29869 206:0.239438 207:-0.473716 208:-0.0576598 209:-0.551556 210:-0.646439 211:0.303179 212:0.310141 213:-0.520403 214:-0.089262 215:-0.582793 216:-0.684188 
0.1365355791737938 0 0.2403495246810488 0.1831113913820716 0 1:0.220108 2:-0.334717 3:0.640139 4:0.737783 5:0.394861 6:0.296627 7:0.32509 8:-0.243268 9:0.512612 10:0.658289 11:0.264069 12:0.120218 13:0.440729 14:-0.24146 15:0.423592 16:0.60037 17:0.212124 18:0.0966365 19:0.427749 20:-0.246653 21:0.394272 22:0.584583 23:0.195937 24:0.0901927 25:0.416843 26:-0.247675 27:0.387875 28:0.581221 29:0.187911 30:0.0845791 31:0.405795 32:-0.242769 33:0.351475 34:0.550773 35:0.161223 36:0.0616184 37:0.244342 38:-0.0508701 39:0.500062 40:0.624326 41:0.144983 42:0.0080859 43:0.273074 44:0.0867739 45:0.34487 46:0.545919 47:0.0207576 48:-0.220469 49:0.329653 50:0.0799415 51:0.238221 52:0.467637 53:-0.032082 54:-0.240593 55:0.32504 56:0.0719646 57:0.202582 58:0.443787 59:-0.0477923 60:-0.247646 61:0.321753 62:0.0694046 63:0.18143 64:0.432406 65:-0.0568955 66:-0.253069 67:0.320775 68:0.0733492 69:0.126087 70:0.395864 71:-0.0835987 72:-0.27366 73:0.28322 74:0.231482 75:0.394324 76:0.523137 77:-0.0578421 78:-0.264426 79:0.250588 80:0.413086 81:0.20584 82:0.445718 83:-0.211503 84:-0.547406 85:0.256274 86:0.398749 87:0.0683774 88:0.345686 89:-0.269057 90:-0.564272 91:0.253431 92:0.384899 93:0.0199072 94:0.312969 95:-0.286728 96:-0.569139 97:0.26083 98:0.382434 99:-0.0113421 100:0.294411 101:-0.299221 102:-0.576274 103:0.264351 104:0.389787 105:-0.0684354 106:0.258755 107:-0.325358 108:-0.597169 109:0.286647 110:0.464 111:0.329904 112:0.469683 113:-0.192122 114:-0.466227 115:0.235379 116:0.678564 117:0.136018 118:0.387448 119:-0.360131 120:-0.781606 121:0.23161 122:0.647322 123:-0.015588 124:0.279987 125:-0.4071 126:-0.777514 127:0.232564 128:0.614439 129:-0.0591742 130:0.251917 131:-0.411043 132:-0.762618 133:0.233979 134:0.596165 135:-0.0757808 136:0.237071 137:-0.412216 138:-0.753338 139:0.238454 140:0.587674 141:-0.0937794 142:0.226928 143:-0.412982 144:-0.749135 145:0.299307 146:0.489857 147:0.313413 148:0.449139 149:-0.209093 150:-0.477838 151:0.23193 152:0.703175 153:0.110028 154:0.369663 155:-0.370679 156:-0.801526 157:0.232984 158:0.676013 159:-0.0478813 160:0.25602 161:-0.422593 162:-0.800775 163:0.232588 164:0.639758 165:-0.085343 166:0.227972 167:-0.425852 168:-0.782971 169:0.231939 170:0.622573 171:-0.105058 172:0.211726 173:-0.428754 174:-0.774415 175:0.231168 176:0.617278 177:-0.119785 178:0.203461 179:-0.430497 180:-0.772066 181:0.293032 182:0.484439 183:0.331816 184:0.461471 185:-0.199197 186:-0.471176 187:0.228028 188:0.711663 189:0.113886 190:0.373177 191:-0.367043 192:-0.804089 193:0.2318 194:0.700073 195:-0.0520342 196:0.253152 197:-0.431907 198:-0.816747 199:0.233289 200:0.664947 201:-0.0965081 202:0.220833 203:-0.438203 204:-0.799155 205:0.232839 206:0.649057 207:-0.118229 208:0.205298 209:-0.443681 210:-0.791826 211:0.240896 212:0.646731 213:-0.135053 214:0.194518 215:-0.449233 216:-0.791658 
0.1371413717245861 0 0.09897496596663363 0.1580937831249134 0 1:0.169061 2:0.969999 3:-0.204048 4:0.0869117 5:-0.400139 6:-0.993492 7:0.194446 8:0.989426 9:-0.107788 10:0.201326 11:-0.430306 12:-0.994518 13:0.192709 14:0.997029 15:-0.068839 16:0.239669 17:-0.425205 18:-0.998379 19:0.189995 20:0.999847 21:-0.0831451 22:0.233849 23:-0.430375 24:-0.999895 25:0.197596 26:0.999847 27:-0.0825788 28:0.23072 29:-0.431875 30:-0.999895 31:0.200195 32:0.999847 33:-0.0938748 34:0.215542 35:-0.442293 36:-0.999895 37:0.167737 38:0.987042 39:-0.11811 40:0.139048 41:-0.36433 42:-0.995107 43:0.195642 44:0.995426 45:-0.0553059 46:0.251676 47:-0.407789 48:-0.99762 49:0.190183 50:0.999797 51:-0.0542222 52:0.253732 53:-0.41878 54:-0.999869 55:0.190139 56:0.999848 57:-0.0661169 58:0.247314 59:-0.424189 60:-0.999895 61:0.197446 62:0.999848 63:-0.0809183 64:0.241221 65:-0.426154 66:-0.999895 67:0.201611 68:0.999848 69:-0.11636 70:0.220901 71:-0.439267 72:-0.999895 73:0.147933 74:0.9941 75:-0.0572318 76:0.160412 77:-0.324963 78:-0.995778 79:0.19755 80:0.999911 81:-0.0413189 82:0.263184 83:-0.406752 84:-0.999947 85:0.192569 86:1 87:-0.0489961 88:0.259565 89:-0.421915 90:-1 91:0.192761 92:1 93:-0.0595946 94:0.254825 95:-0.427891 96:-1 97:0.201738 98:1 99:-0.0745361 100:0.248531 101:-0.430912 102:-1 103:0.204116 104:1 105:-0.108728 106:0.22986 107:-0.444442 108:-1 109:0.147097 110:0.999975 111:-0.0565198 112:0.15984 113:-0.330565 114:-0.999987 115:0.198736 116:0.999975 117:-0.0312422 118:0.262667 119:-0.412026 120:-0.999987 121:0.196168 122:1 123:-0.0421845 124:0.260322 125:-0.42678 126:-1 127:0.197221 128:1 129:-0.0536784 130:0.255992 131:-0.43432 132:-1 133:0.198498 134:1 135:-0.0599621 136:0.248742 137:-0.438281 138:-1 139:0.204917 140:1 141:-0.0865642 142:0.23222 143:-0.451244 144:-1 145:0.151662 146:1 147:-0.0428752 148:0.177359 149:-0.336981 150:-1 151:0.2004 152:1 153:-0.0219914 154:0.271293 155:-0.41626 156:-1 157:0.201685 158:1 159:-0.0339447 160:0.266337 161:-0.429442 162:-1 163:0.200856 164:1 165:-0.042434 166:0.259733 167:-0.436723 168:-1 169:0.199827 170:1 171:-0.0506375 172:0.251905 173:-0.440546 174:-1 175:0.200959 176:1 177:-0.0778229 178:0.234307 179:-0.454047 180:-1 181:0.153006 182:0.998819 183:-0.0180505 184:0.199215 185:-0.339965 186:-0.999301 187:0.197885 188:0.999304 189:0.00144408 190:0.289458 191:-0.408323 192:-0.999539 193:0.199982 194:1 195:-0.0118162 196:0.282934 197:-0.418288 198:-1 199:0.200386 200:1 201:-0.022347 202:0.275738 203:-0.424452 204:-1 205:0.199571 206:1 207:-0.0306501 208:0.270081 209:-0.429891 210:-1 211:0.209013 212:1 213:-0.0588119 214:0.250664 215:-0.445298 216:-1 
0 0.3108489001290641 0 0 0 1:-0.438086 2:0.519308 3:0.43508 4:-0.0644956 5:-0.0310832 6:0.0944258 7:-0.395928 8:0.524547 9:0.544552 10:-0.0119228 11:-0.0216323 12:0.123024 13:-0.381013 14:0.535413 15:0.517948 16:-0.0209827 17:-0.0359354 18:0.112028 19:-0.375329 20:0.553007 21:0.478241 22:-0.0498974 23:-0.0625487 24:0.0948971 25:-0.361942 26:0.586574 27:0.443593 28:-0.0857215 29:-0.0956473 30:0.0692538 31:-0.348329 32:0.631984 33:0.31639 34:-0.164639 35:-0.185527 36:-0.000342764 37:-0.22402 38:0.632688 39:0.277442 40:0.0838411 41:-0.09414 42:-0.279304 43:-0.186507 44:0.664751 45:0.367584 46:0.129801 47:-0.0794891 48:-0.275882 49:-0.174385 50:0.678664 51:0.343708 52:0.111244 53:-0.100029 54:-0.287182 55:-0.165222 56:0.69473 57:0.303838 58:0.0806444 59:-0.130513 60:-0.303482 61:-0.149603 62:0.722318 63:0.256563 64:0.0447527 65:-0.16692 66:-0.326225 67:-0.144447 68:0.759658 69:0.12271 70:-0.0299557 71:-0.251567 72:-0.380719 73:-0.0255728 74:0.759267 75:0.151911 76:0.22122 77:-0.117237 78:-0.641751 79:0.0210252 80:0.818113 81:0.208032 82:0.260688 83:-0.131861 84:-0.670825 85:0.032194 86:0.824771 87:0.176793 88:0.243618 89:-0.158527 90:-0.681183 91:0.0417494 92:0.833851 93:0.130509 94:0.215376 95:-0.194164 96:-0.695979 97:0.0606462 98:0.852458 99:0.0782255 100:0.183611 101:-0.233349 102:-0.716594 103:0.0522276 104:0.870685 105:-0.0343697 106:0.124539 107:-0.302438 108:-0.751965 109:0.11577 110:0.875319 111:0.158101 112:0.396525 113:-0.0786592 114:-0.905633 115:0.147537 116:0.981243 117:0.155891 118:0.401968 119:-0.138283 120:-0.988982 121:0.147196 122:0.989505 123:0.112438 124:0.374646 125:-0.173743 126:-0.993256 127:0.151952 128:0.993428 129:0.066496 130:0.345113 131:-0.213543 132:-0.995882 133:0.157982 134:0.997979 135:0.0361532 136:0.31965 137:-0.250211 138:-0.998813 139:0.164794 140:0.981775 141:-0.00732369 142:0.289501 143:-0.290705 144:-0.989914 145:0.133463 146:0.886458 147:0.248945 148:0.468515 149:-0.030568 150:-0.90429 151:0.148053 152:1 153:0.183761 154:0.424603 155:-0.127978 156:-1 157:0.151478 158:1 159:0.137187 160:0.393022 161:-0.167219 162:-1 163:0.155355 164:1 165:0.100255 166:0.365351 167:-0.206259 168:-1 169:0.160179 170:1 171:0.0703079 172:0.341197 173:-0.244555 174:-1 175:0.167744 176:0.987519 177:0.0477933 178:0.326646 179:-0.278056 180:-0.992085 181:0.133221 182:0.882472 183:0.287103 184:0.496121 185:-0.0186015 186:-0.897034 187:0.146279 188:1 189:0.198142 190:0.43591 191:-0.124382 192:-1 193:0.151449 194:1 195:0.150311 196:0.402994 197:-0.163765 198:-1 199:0.156808 200:1 201:0.112936 202:0.375894 203:-0.202407 204:-1 205:0.161733 206:1 207:0.0808928 208:0.352591 209:-0.242846 210:-1 211:0.176555 212:0.99204 213:0.0560182 214:0.335227 215:-0.27824 216:-0.994943 
0 0.06793660229575826 0 0 0 1:-0.271363 2:0.378687 3:-0.346538 4:-0.225328 5:-0.261321 6:-0.432496 7:-0.252912 8:0.485696 9:-0.320204 10:-0.212455 11:-0.285333 12:-0.456013 13:-0.253088 14:0.529572 15:-0.320342 16:-0.220351 17:-0.309438 18:-0.462309 19:-0.24915 20:0.562353 21:-0.321647 22:-0.229733 23:-0.325933 24:-0.469741 25:-0.235222 26:0.588811 27:-0.308938 28:-0.235774 29:-0.338551 30:-0.474775 31:-0.218786 32:0.599987 33:-0.312512 34:-0.246647 35:-0.35762 36:-0.483323 37:-0.0847303 38:0.605895 39:-0.436191 40:-0.201318 41:-0.391935 42:-0.643837 43:-0.0663524 44:0.719425 45:-0.411219 46:-0.160894 47:-0.385519 48:-0.700007 49:-0.0644103 50:0.737208 51:-0.405882 52:-0.154134 53:-0.397598 54:-0.71143 55:-0.0554154 56:0.748067 57:-0.406069 58:-0.148979 59:-0.403526 60:-0.721831 61:-0.0374309 62:0.757786 63:-0.418309 64:-0.148264 65:-0.410772 66:-0.731882 67:-0.0191311 68:0.764354 69:-0.451584 70:-0.160486 71:-0.43188 72:-0.740195 73:0.104876 74:0.794003 75:-0.540886 76:-0.168904 77:-0.469821 78:-0.879568 79:0.139172 80:0.905641 81:-0.515242 82:-0.0911674 83:-0.449918 84:-0.964356 85:0.140937 86:0.917065 87:-0.49929 88:-0.073049 89:-0.452224 90:-0.969819 91:0.148735 92:0.926032 93:-0.489838 94:-0.0605809 95:-0.453001 96:-0.973938 97:0.163554 98:0.937194 99:-0.493443 100:-0.0556255 101:-0.456696 102:-0.977955 103:0.170428 104:0.948345 105:-0.521754 106:-0.0672799 107:-0.477587 108:-0.981418 109:0.141113 110:0.889165 111:-0.486489 112:-0.12778 113:-0.480247 114:-0.907335 115:0.160053 116:0.999798 117:-0.442693 118:-0.0442856 119:-0.448462 120:-0.999921 121:0.157683 122:1 123:-0.433841 124:-0.0292581 125:-0.449624 126:-1 127:0.158899 128:1 129:-0.426804 130:-0.020717 131:-0.449351 132:-1 133:0.16114 134:1 135:-0.423559 136:-0.0194988 137:-0.452189 138:-1 139:0.170641 140:1 141:-0.44528 142:-0.0308685 143:-0.471362 144:-1 145:0.150438 146:0.882104 147:-0.460146 148:-0.116634 149:-0.481024 150:-0.893965 151:0.161468 152:0.99976 153:-0.42507 154:-0.0290493 155:-0.445017 156:-0.999895 157:0.163273 158:1 159:-0.412026 160:-0.0135502 161:-0.445335 162:-1 163:0.162888 164:1 165:-0.400744 166:-0.00548587 167:-0.444824 168:-1 169:0.162958 170:1 171:-0.397371 172:-0.00408401 173:-0.447623 174:-1 175:0.166907 176:1 177:-0.416531 178:-0.0146744 179:-0.46541 180:-1 181:0.152432 182:0.871688 183:-0.428589 184:-0.105423 185:-0.484512 186:-0.881947 187:0.161363 188:0.999582 189:-0.415896 190:-0.0212715 191:-0.447651 192:-0.999816 193:0.164694 194:1 195:-0.400692 196:-0.005039 197:-0.446914 198:-1 199:0.165882 200:1 201:-0.389171 202:0.00416266 203:-0.445916 204:-1 205:0.165668 206:1 207:-0.384252 208:0.00851784 209:-0.447868 210:-1 211:0.177309 212:1 213:-0.401518 214:-0.00171224 215:-0.464963 216:-1 
0.5348559562918241 0.3917988996230424 0.373004341950546 0.2493908245651469 4.028278106436134 1:-0.189216 2:0.209135 3:0.106601 4:-0.00522495 5:-0.0854736 6:-0.0635986 7:-0.0129768 8:0.175709 9:0.0777778 10:0.103916 11:-0.203693 12:-0.203455 13:0.114569 14:0.163202 15:0.16817 16:0.247142 17:-0.196622 18:-0.242813 19:0.133386 20:0.17515 21:0.183712 22:0.271612 23:-0.197915 24:-0.252117 25:0.150717 26:0.176631 27:0.191841 28:0.282302 29:-0.195149 30:-0.259562 31:0.159304 32:0.175265 33:0.200174 34:0.289941 35:-0.193637 36:-0.266512 37:-0.0566018 38:0.136385 39:0.170542 40:0.151828 41:-0.0337572 42:-0.110551 43:0.127143 44:0.16096 45:0.064205 46:0.248248 47:-0.183061 48:-0.350674 49:0.251323 50:0.195091 51:0.126909 52:0.386069 53:-0.198481 54:-0.448884 55:0.248722 56:0.223069 57:0.147913 58:0.404564 59:-0.199584 60:-0.462432 61:0.253977 62:0.229127 63:0.154069 64:0.412705 65:-0.193602 66:-0.463948 67:0.254997 68:0.231261 69:0.156756 70:0.418101 71:-0.188726 72:-0.462505 73:-0.0572379 74:0.0789786 75:0.317902 76:0.254522 77:0.0771076 78:-0.0415292 79:0.127866 80:0.146112 81:0.176982 82:0.334161 83:-0.11035 84:-0.31683 85:0.235026 86:0.211392 87:0.216569 88:0.45442 89:-0.140341 90:-0.436235 91:0.233207 92:0.229064 93:0.234738 94:0.470088 95:-0.137047 96:-0.44437 97:0.24126 98:0.235688 99:0.238329 100:0.475675 101:-0.133639 102:-0.445902 103:0.241514 104:0.238375 105:0.240496 106:0.481099 107:-0.130924 108:-0.444884 109:-0.0606318 110:0.0603934 111:0.360661 112:0.295412 113:0.110149 114:-0.0191161 115:0.125665 116:0.147868 117:0.220101 118:0.357636 119:-0.0851855 120:-0.304126 121:0.231585 122:0.220899 123:0.241146 124:0.469809 125:-0.122419 126:-0.438589 127:0.229712 128:0.243677 129:0.244386 130:0.477036 131:-0.125125 132:-0.455436 133:0.230262 134:0.254326 135:0.250038 136:0.477441 137:-0.127577 138:-0.460819 139:0.235295 140:0.257633 141:0.257468 142:0.484539 143:-0.125839 144:-0.458348 145:-0.0595452 146:0.0584641 147:0.365673 148:0.299051 149:0.113684 150:-0.0142991 151:0.126727 152:0.150468 153:0.222007 154:0.358128 155:-0.0818481 156:-0.301621 157:0.234931 158:0.22487 159:0.243962 160:0.472066 161:-0.121197 162:-0.439892 163:0.231203 164:0.24879 165:0.254792 166:0.479738 167:-0.122804 168:-0.45648 169:0.229605 170:0.258107 171:0.25914 172:0.480609 173:-0.124889 174:-0.46048 175:0.229114 176:0.261732 177:0.266076 178:0.487104 179:-0.123079 180:-0.459169 181:-0.0569889 182:0.0410076 183:0.381169 184:0.30993 185:0.121379 186:-0.00617825 187:0.126811 188:0.138914 189:0.227131 190:0.361775 191:-0.0738172 192:-0.290877 193:0.234457 194:0.215375 195:0.249269 196:0.476276 197:-0.114709 198:-0.431907 199:0.232222 200:0.239856 201:0.263267 202:0.48719 203:-0.11448 204:-0.446433 205:0.230402 206:0.249313 207:0.26955 208:0.492143 209:-0.116301 210:-0.450645 211:0.237881 212:0.254458 213:0.273801 214:0.495607 215:-0.116556 216:-0.451128 
0.1348682778878753 0 0.1002585435417679 0.1081808502609089 0 1:0.0475065 2:0.860042 3:-0.396814 4:-0.199238 5:-0.635723 6:-0.758006 7:0.156353 8:0.941973 9:-0.269114 10:-0.065165 11:-0.593679 12:-0.822721 13:0.147228 14:0.948276 15:-0.240283 16:-0.0275506 17:-0.567517 18:-0.832344 19:0.134634 20:0.949543 21:-0.231369 22:-0.0130804 23:-0.549683 24:-0.837088 25:0.160354 26:0.949154 27:-0.218622 28:-0.00261379 29:-0.539283 30:-0.841081 31:0.159008 32:0.95849 33:-0.245796 34:-0.022982 35:-0.548432 36:-0.852572 37:0.124074 38:0.871442 39:-0.310644 40:0.00028311 41:-0.538254 42:-0.889098 43:0.210665 44:0.980183 45:-0.168053 46:0.167684 47:-0.475671 48:-0.990587 49:0.196545 50:0.991304 51:-0.126801 52:0.200252 53:-0.452728 54:-0.994911 55:0.192605 56:0.993711 57:-0.112847 58:0.212981 59:-0.435823 60:-0.996115 61:0.197738 62:0.994424 63:-0.109698 64:0.220219 65:-0.423682 66:-0.996468 67:0.197361 68:0.995102 69:-0.130437 70:0.209849 71:-0.42325 72:-0.995825 73:0.107424 74:0.871402 75:-0.217314 76:0.0658753 77:-0.472888 78:-0.888776 79:0.199539 80:0.995092 81:-0.0587125 82:0.25033 83:-0.407197 84:-0.99684 85:0.188469 86:0.995536 87:-0.0154453 88:0.284183 89:-0.382008 90:-0.997002 91:0.185172 92:0.995437 93:0.00541934 94:0.302373 95:-0.364127 96:-0.996908 97:0.191163 98:0.99549 99:0.0183738 100:0.315985 101:-0.346879 102:-0.996946 103:0.190638 104:0.996092 105:0.0206439 106:0.322933 107:-0.338106 108:-0.997306 109:0.0992835 110:0.858087 111:-0.131087 112:0.126394 113:-0.420319 114:-0.878641 115:0.192783 116:0.995055 117:0.046721 118:0.32083 119:-0.34891 120:-0.996867 121:0.183754 122:0.995966 123:0.092127 124:0.359628 125:-0.319229 126:-0.997284 127:0.18031 128:0.995513 129:0.117409 130:0.38287 131:-0.296759 132:-0.996977 133:0.177352 134:0.995516 135:0.149075 136:0.402957 137:-0.272162 138:-0.996973 139:0.179748 140:0.996092 141:0.169765 142:0.420216 143:-0.255463 144:-0.997308 145:0.0981622 146:0.846701 147:-0.0270414 148:0.197015 149:-0.356972 150:-0.865076 151:0.184832 152:0.996496 153:0.140847 154:0.392627 155:-0.288445 156:-0.997841 157:0.181607 158:0.997775 159:0.181525 160:0.425846 161:-0.264935 162:-0.99845 163:0.17794 164:0.99732 165:0.203997 166:0.44214 167:-0.249391 168:-0.998132 169:0.173501 170:0.997322 171:0.231491 172:0.460196 173:-0.227318 174:-0.998129 175:0.170305 176:0.997408 177:0.255207 178:0.479115 179:-0.207733 180:-0.998172 181:0.088076 182:0.837729 183:0.0725534 184:0.26219 185:-0.298917 186:-0.853291 187:0.174503 188:0.997999 189:0.223851 190:0.455051 191:-0.229244 192:-0.998947 193:0.174063 194:0.999747 195:0.25723 196:0.482171 197:-0.211668 198:-0.999829 199:0.17366 200:0.999001 201:0.264846 202:0.488359 203:-0.207488 204:-0.999293 205:0.171317 206:0.999001 207:0.274576 208:0.495861 209:-0.199814 210:-0.999292 211:0.177539 212:0.999 213:0.283786 214:0.50296 215:-0.191697 216:-0.999289 
0.06576576050740453 0 0.03931817887475429 0.004329051793397572 0 1:0.0613652 2:0.979129 3:-0.0306019 4:0.131129 5:-0.206607 6:-1 7:0.10924 8:0.978561 9:0.112379 10:0.281043 11:-0.20322 12:-0.989907 13:0.1149 14:0.994503 15:0.175059 16:0.327996 17:-0.1743 18:-0.997193 19:0.114695 20:0.997864 21:0.166093 22:0.327051 23:-0.179552 24:-0.998524 25:0.122946 26:0.996212 27:0.169191 28:0.329404 29:-0.181196 30:-0.99743 31:0.124844 32:0.996312 33:0.169747 34:0.325532 35:-0.186221 36:-0.997495 37:0.12704 38:0.988581 39:0.202398 40:0.367531 41:-0.147707 42:-0.997765 43:0.16747 44:0.990484 45:0.321958 46:0.530691 47:-0.16667 48:-0.99532 49:0.164988 50:0.998684 51:0.36769 52:0.564617 53:-0.15406 54:-0.999106 55:0.164818 56:0.99938 57:0.357856 58:0.558811 59:-0.1595 60:-0.999501 61:0.172144 62:0.999279 63:0.350325 64:0.555924 65:-0.16055 66:-0.999422 67:0.174924 68:0.999329 69:0.336582 70:0.547942 71:-0.16438 72:-0.99946 73:0.128568 74:0.998012 75:0.365508 76:0.478232 77:-0.0547361 78:-0.998997 79:0.16961 80:0.999545 81:0.458946 82:0.632887 83:-0.0971399 84:-0.999684 85:0.162299 86:0.999861 87:0.474932 88:0.64399 89:-0.0959439 90:-0.999882 91:0.161913 92:0.999861 93:0.468487 94:0.641042 95:-0.0997677 96:-0.999882 97:0.170587 98:0.999861 99:0.458248 100:0.635338 101:-0.102351 102:-0.999882 103:0.171346 104:0.999911 105:0.44161 106:0.625785 107:-0.107507 108:-0.999921 109:0.126093 110:0.99986 111:0.456442 112:0.555265 113:-0.00037987 114:-0.999894 115:0.165482 116:0.999949 117:0.557681 118:0.702019 119:-0.0426941 120:-0.999961 121:0.160548 122:0.999949 123:0.564866 124:0.709159 125:-0.0444067 126:-0.999961 127:0.160661 128:0.999949 129:0.550989 130:0.704412 131:-0.0497507 132:-0.999961 133:0.161571 134:0.999949 135:0.546105 136:0.695862 137:-0.053312 138:-0.999961 139:0.166578 140:1 141:0.529476 142:0.684034 143:-0.0619162 144:-1 145:0.124778 146:0.999911 147:0.505966 148:0.60052 149:0.0336837 150:-0.999934 151:0.162398 152:1 153:0.609481 154:0.741815 155:-0.00983641 156:-1 157:0.162509 158:1 159:0.615623 160:0.7472 161:-0.0152077 162:-1 163:0.161262 164:1 165:0.60993 166:0.742609 167:-0.0207559 168:-1 169:0.159938 170:1 171:0.604404 172:0.735512 173:-0.0233351 174:-1 175:0.159995 176:1 177:0.585155 178:0.721657 179:-0.0337167 180:-1 181:0.124151 182:0.999923 183:0.52255 184:0.613763 185:0.0387974 186:-0.999947 187:0.159749 188:1 189:0.619172 190:0.749388 191:-0.00567724 192:-1 193:0.161796 194:1 195:0.634183 196:0.761315 197:-0.0078769 198:-1 199:0.16179 200:1 201:0.63366 202:0.761407 203:-0.00900358 204:-1 205:0.16035 206:1 207:0.629543 208:0.758433 209:-0.0117884 210:-1 211:0.168151 212:1 213:0.608936 214:0.742408 215:-0.0235806 216:-1 
0 0 0 0 1.559526134353565 1:0.289062 2:-0.236921 3:0.0830421 4:0.356164 5:0.065656 6:-0.0722976 7:0.21924 8:-0.27054 9:0.173794 10:0.410292 11:0.123052 12:-0.0294038 13:0.185808 14:-0.239327 15:0.214301 16:0.448896 17:0.139348 18:-0.0343864 19:0.190721 20:-0.230732 21:0.181095 22:0.428417 23:0.110041 24:-0.0641937 25:0.199403 26:-0.224808 27:0.178824 28:0.424687 29:0.0994823 30:-0.0756053 31:0.20795 32:-0.207681 33:0.185492 34:0.42539 35:0.0953733 36:-0.0827906 37:0.291414 38:0.053159 39:-0.0547164 40:0.253707 41:-0.156839 42:-0.332011 43:0.229013 44:0.0105482 45:0.0512151 46:0.330432 47:-0.0650223 48:-0.271426 49:0.202464 50:0.0278919 51:0.126206 52:0.38668 53:-0.0271725 54:-0.255834 55:0.199191 56:0.0264094 57:0.130389 58:0.391689 59:-0.0270762 60:-0.261756 61:0.204836 62:0.0241253 63:0.124579 64:0.391185 65:-0.0297557 66:-0.264875 67:0.21302 68:0.0371777 69:0.0814888 70:0.36345 71:-0.0570814 72:-0.288819 73:0.2722 74:0.279789 75:-0.169619 76:0.159157 77:-0.32938 78:-0.561397 79:0.249747 80:0.237815 81:-0.0919366 82:0.225631 83:-0.263952 84:-0.507127 85:0.225915 86:0.246132 87:-0.00911156 88:0.28883 89:-0.218636 90:-0.484525 91:0.223507 92:0.246304 93:-0.000934995 94:0.297726 95:-0.215571 96:-0.489013 97:0.231857 98:0.245099 99:-0.00595412 100:0.298323 101:-0.217934 102:-0.492641 103:0.237549 104:0.257954 105:-0.0421445 106:0.277457 107:-0.24079 108:-0.513457 109:0.246936 110:0.421341 111:-0.161649 112:0.164466 113:-0.388436 114:-0.671214 115:0.245486 116:0.384827 117:-0.1273 118:0.191006 119:-0.358509 120:-0.637049 121:0.233816 122:0.384752 123:-0.0733065 124:0.237311 125:-0.324864 126:-0.62053 127:0.232197 128:0.380316 129:-0.0547346 130:0.255209 131:-0.311646 132:-0.615876 133:0.232659 134:0.372028 135:-0.0361712 136:0.266293 137:-0.301923 138:-0.606557 139:0.237231 140:0.370728 141:-0.0324231 142:0.271928 143:-0.298927 144:-0.602435 145:0.241471 146:0.413004 147:-0.0904475 148:0.216591 149:-0.351696 150:-0.643882 151:0.24016 152:0.355581 153:-0.0795308 154:0.228419 155:-0.319504 156:-0.602762 157:0.235452 158:0.323626 159:-0.0414242 160:0.2608 161:-0.283417 162:-0.576204 163:0.23213 164:0.316612 165:-0.0185598 166:0.277404 167:-0.268598 168:-0.569743 169:0.230633 170:0.307869 171:-0.000448278 172:0.288959 173:-0.258775 174:-0.559481 175:0.230179 176:0.308178 177:0.00458736 178:0.294886 179:-0.256899 180:-0.556622 181:0.241407 182:0.360325 183:-0.0446604 184:0.247947 185:-0.322052 186:-0.609814 187:0.236631 188:0.292756 189:-0.047209 190:0.253234 191:-0.281158 192:-0.558387 193:0.234457 194:0.250304 195:-0.0119776 196:0.282815 197:-0.243176 198:-0.526449 199:0.232883 200:0.254473 201:0.00356906 202:0.294924 203:-0.235043 204:-0.526425 205:0.231405 206:0.255331 207:0.0182644 208:0.306264 209:-0.230705 210:-0.522637 211:0.239056 212:0.261912 213:0.0222955 214:0.310393 215:-0.232282 216:-0.5237 
-0 0 8 0 0 1:-0.96421 2:0.189487 3:0.135021 4:-0.438725 5:-0.402218 6:0.36253 7:-0.989807 8:0.195153 9:0.0904787 10:-0.464655 11:-0.421567 12:0.33509 13:-0.983638 14:0.191298 15:0.0678369 16:-0.463497 17:-0.421427 18:0.326912 19:-0.986134 20:0.18985 21:0.0539485 22:-0.465554 23:-0.423735 24:0.321417 25:-0.986262 26:0.200554 27:0.0489774 28:-0.474762 29:-0.434048 30:0.313471 31:-0.986609 32:0.216062 33:0.0571431 34:-0.485852 35:-0.444007 36:0.3138 37:-0.955973 38:0.200028 39:0.0950189 40:-0.457453 41:-0.421212 42:0.341823 43:-0.975549 44:0.205927 45:0.0563286 46:-0.47479 47:-0.426288 48:0.3202 49:-0.975665 50:0.201737 51:0.0453324 52:-0.474214 53:-0.426308 54:0.31339 55:-0.975437 56:0.199506 57:0.0400029 58:-0.47327 59:-0.425655 60:0.309191 61:-0.975233 62:0.211059 63:0.0242136 64:-0.483186 65:-0.434681 66:0.303612 67:-0.976402 68:0.225148 69:0.0172888 70:-0.493252 71:-0.443412 72:0.309272 73:-0.950634 74:0.208596 75:0.0849473 76:-0.47249 77:-0.41268 78:0.33507 79:-0.970416 80:0.216878 81:0.0452361 82:-0.483922 83:-0.422934 84:0.316001 85:-0.970653 86:0.216931 87:0.0307187 88:-0.487084 89:-0.426982 90:0.305436 91:-0.97062 92:0.218143 93:0.025263 94:-0.487987 95:-0.428558 96:0.299553 97:-0.970237 98:0.229448 99:0.0121091 100:-0.497103 101:-0.43622 102:0.296276 103:-0.97089 104:0.243105 105:0.00747087 106:-0.506071 107:-0.445122 108:0.302271 109:-0.965725 110:0.209471 111:0.0770595 112:-0.475695 113:-0.411988 114:0.32996 115:-0.96992 116:0.213688 117:0.051507 118:-0.482828 119:-0.42105 120:0.313539 121:-0.970505 122:0.218143 123:0.0294339 124:-0.489673 125:-0.430062 126:0.297783 127:-0.970628 128:0.224479 129:0.0198262 130:-0.494481 131:-0.435484 132:0.286448 133:-0.970291 134:0.237185 135:0.0151813 136:-0.504861 137:-0.443766 138:0.28445 139:-0.970462 140:0.253813 141:0.0162568 142:-0.515189 143:-0.453179 144:0.294786 145:-0.965247 146:0.215798 147:0.0455997 148:-0.485478 149:-0.421773 150:0.306936 151:-0.970393 152:0.205929 153:0.047323 154:-0.478387 155:-0.417698 156:0.312193 157:-0.971411 158:0.213705 159:0.0271826 160:-0.487482 161:-0.430069 162:0.29793 163:-0.971317 164:0.226102 165:0.0191155 166:-0.497516 167:-0.439441 168:0.285155 169:-0.970578 170:0.242114 171:0.0110814 172:-0.510647 173:-0.449203 174:0.282446 175:-0.970361 176:0.262377 177:0.0103734 178:-0.52382 179:-0.459526 180:0.289138 181:-0.960379 182:0.244479 183:-0.00808493 184:-0.510163 185:-0.439514 186:0.255827 187:-0.966299 188:0.213733 189:0.0313598 190:-0.485502 191:-0.412435 192:0.301333 193:-0.967153 194:0.214717 195:0.0372774 196:-0.485716 197:-0.413757 198:0.304849 199:-0.966474 200:0.232144 201:0.0261851 202:-0.499738 203:-0.425853 204:0.293717 205:-0.96578 206:0.247277 207:0.0193773 208:-0.511223 209:-0.435596 210:0.290872 211:-0.965588 212:0.265215 213:0.0160953 214:-0.523905 215:-0.44705 216:0.295552 
-0.5779613480533297 1.27513852770912 3.324263814460819 0.7035982739302858 0.4583093419345218 1:-0.417344 2:0.0716983 3:0.828292 4:-0.0526934 5:0.211615 6:0.877159 7:-0.443441 8:0.0499193 9:0.924151 10:-0.0385973 11:0.240794 12:0.940902 13:-0.539955 14:0.00822071 15:0.936994 16:-0.0047161 17:0.282001 18:0.956923 19:-0.484995 20:-0.0254956 21:0.923809 22:0.0250686 23:0.293752 24:0.950493 25:-0.58465 26:-0.0371745 27:0.912694 28:0.0334458 29:0.30168 30:0.942033 31:-0.672932 32:0.0327918 33:0.881038 34:-0.042286 35:0.282549 36:0.912595 37:-0.148598 38:0.280087 39:0.766047 40:-0.26487 41:-0.109838 42:0.838599 43:-0.197452 44:0.293506 45:0.871267 46:-0.271315 47:-0.0806805 48:0.912811 49:-0.329185 50:0.238369 51:0.897037 52:-0.233204 53:-0.0252217 54:0.92932 55:-0.335786 56:0.20038 57:0.883843 58:-0.203229 59:-0.00392598 60:0.916075 61:-0.504284 62:0.188084 63:0.864706 64:-0.199562 65:0.00841007 66:0.904508 67:-0.645876 68:0.243866 69:0.819091 70:-0.263412 71:-0.00973476 72:0.876742 73:-0.0631896 74:0.439262 75:0.741547 76:-0.433167 77:-0.350991 78:0.821258 79:-0.152262 80:0.517856 81:0.825884 82:-0.49756 83:-0.391146 84:0.887273 85:-0.338859 86:0.456392 87:0.853708 88:-0.458045 89:-0.326547 90:0.902552 91:-0.383864 92:0.413389 93:0.836312 94:-0.425819 95:-0.298165 96:0.883945 97:-0.571667 98:0.397378 99:0.812098 100:-0.420553 101:-0.281766 102:0.869326 103:-0.712863 104:0.440974 105:0.759293 106:-0.470774 107:-0.300202 108:0.837004 109:0.171929 110:0.440952 111:0.776617 112:-0.41992 113:-0.462956 114:0.848364 115:0.024924 116:0.569109 117:0.806853 118:-0.541521 119:-0.576158 120:0.872426 121:-0.243149 122:0.511744 123:0.815764 124:-0.515499 125:-0.520915 126:0.872316 127:-0.367029 128:0.470861 129:0.788992 130:-0.490923 131:-0.484953 132:0.846389 133:-0.602674 134:0.455915 135:0.766867 136:-0.489986 137:-0.466514 138:0.83061 139:-0.746262 140:0.492513 141:0.716835 142:-0.53239 143:-0.488147 144:0.803555 145:0.367946 146:0.405951 147:0.774098 148:-0.377913 149:-0.442261 150:0.848361 151:0.228771 152:0.554447 153:0.779854 154:-0.521858 155:-0.576296 156:0.853583 157:-0.035759 158:0.498593 159:0.78505 160:-0.499685 161:-0.521446 162:0.853124 163:-0.291846 164:0.462582 165:0.768876 166:-0.484979 167:-0.482612 168:0.831562 169:-0.572674 170:0.447099 171:0.748229 172:-0.48511 173:-0.458749 174:0.820369 175:-0.720556 176:0.481595 177:0.69828 178:-0.525649 179:-0.478173 180:0.79092 181:0.514316 182:0.409781 183:0.755132 184:-0.371592 185:-0.459526 186:0.826257 187:0.394106 188:0.553984 189:0.755843 190:-0.510629 191:-0.580081 192:0.836471 193:0.190436 194:0.501088 195:0.762152 196:-0.490124 197:-0.527595 198:0.835763 199:-0.0796525 200:0.465096 201:0.750991 202:-0.479396 203:-0.488492 204:0.822977 205:-0.37349 206:0.446302 207:0.736059 208:-0.477471 209:-0.462064 210:0.814434 211:-0.553949 212:0.475101 213:0.687304 214:-0.515171 215:-0.478312 216:0.785956 
-0.03631671581494318 0 0.7335171630310833 0.127790178411528 0.2089483929781604 1:-0.627433 2:-0.12108 3:-0.908389 4:-0.657571 5:-0.652166 6:-0.425454 7:-0.899961 8:-0.0750696 9:-0.92149 10:-0.68515 11:-0.655881 12:-0.41137 13:-0.945224 14:-0.0692634 15:-0.934131 16:-0.6849 17:-0.653027 18:-0.410944 19:-0.961191 20:-0.0642286 21:-0.942485 22:-0.686722 23:-0.652554 24:-0.411181 25:-0.955838 26:-0.0480173 27:-0.931943 28:-0.690986 29:-0.653144 30:-0.412433 31:-0.947374 32:-0.0145423 33:-0.941343 34:-0.704912 35:-0.666475 36:-0.429654 37:-0.619693 38:-0.105714 39:-0.924991 40:-0.665876 41:-0.663862 42:-0.420526 43:-0.886306 44:-0.072735 45:-0.939464 46:-0.682557 47:-0.652743 48:-0.409452 49:-0.93743 50:-0.0775238 51:-0.945255 52:-0.68097 53:-0.647668 54:-0.408988 55:-0.952479 56:-0.081316 57:-0.948875 58:-0.67895 59:-0.645039 60:-0.408525 61:-0.949422 62:-0.07536 63:-0.959268 64:-0.679655 65:-0.643442 66:-0.406287 67:-0.951081 68:-0.0639582 69:-0.983831 70:-0.685668 71:-0.649117 72:-0.409114 73:-0.668053 74:-0.082967 75:-0.924306 76:-0.677654 77:-0.658111 78:-0.415306 79:-0.907436 80:-0.0500576 81:-0.940272 82:-0.687929 83:-0.653127 84:-0.406185 85:-0.944154 86:-0.0578133 87:-0.949276 88:-0.685643 89:-0.648996 90:-0.406737 91:-0.951598 92:-0.0659984 93:-0.953123 94:-0.681766 95:-0.646492 96:-0.40658 97:-0.951241 98:-0.0672023 99:-0.964294 100:-0.680528 101:-0.64542 102:-0.404406 103:-0.952643 104:-0.0579605 105:-0.987601 106:-0.685749 107:-0.651245 108:-0.407509 109:-0.716065 110:-0.052783 111:-0.920803 112:-0.686425 113:-0.66003 114:-0.41223 115:-0.938719 116:-0.0271173 117:-0.918603 118:-0.693883 119:-0.654432 120:-0.404253 121:-0.948923 122:-0.0390157 123:-0.934254 124:-0.690224 125:-0.651677 126:-0.406336 127:-0.951435 128:-0.0480024 129:-0.935052 130:-0.686463 131:-0.650575 132:-0.40869 133:-0.952963 134:-0.0528762 135:-0.934624 136:-0.684271 137:-0.649767 138:-0.405661 139:-0.954503 140:-0.0410923 141:-0.951501 142:-0.690334 143:-0.656948 144:-0.408012 145:-0.713331 146:-0.0337927 147:-0.916709 148:-0.691695 149:-0.663176 150:-0.411241 151:-0.945997 152:-0.0129579 153:-0.921422 154:-0.697826 155:-0.656098 156:-0.403775 157:-0.946282 158:-0.0254984 159:-0.932416 160:-0.693929 161:-0.653106 162:-0.405046 163:-0.949697 164:-0.0336961 165:-0.929955 166:-0.690483 167:-0.652762 168:-0.406504 169:-0.952587 170:-0.0375204 171:-0.928329 172:-0.688636 173:-0.653147 174:-0.403076 175:-0.954686 176:-0.0184747 177:-0.944429 178:-0.696972 179:-0.662428 180:-0.407326 181:-0.708301 182:0.0280403 183:-0.914247 184:-0.714161 185:-0.680855 186:-0.424071 187:-0.942574 188:0.0697165 189:-0.941434 190:-0.725601 191:-0.676705 192:-0.417218 193:-0.943077 194:0.0662148 195:-0.948432 196:-0.723273 197:-0.675089 198:-0.417107 199:-0.94628 200:0.0601727 201:-0.943541 202:-0.719436 203:-0.67409 204:-0.414386 205:-0.949634 206:0.0585811 207:-0.94019 208:-0.717497 209:-0.675145 210:-0.410125 211:-0.951984 212:0.0806009 213:-0.955445 214:-0.726653 215:-0.686255 216:-0.414281 
-0.1241879352641554 1.864704393034927 0 0 0 1:-0.907808 2:0.0674069 3:0.436747 4:-0.245477 5:-0.191312 6:0.589799 7:-0.947899 8:0.0769377 9:0.2403 10:-0.345748 11:-0.30435 12:0.445603 13:-0.97978 14:0.00497051 15:0.0808997 16:-0.341704 17:-0.300467 18:0.336531 19:-0.977985 20:-0.0535471 21:-0.0201097 22:-0.337134 23:-0.304033 24:0.266968 25:-0.916148 26:-0.0858592 27:-0.0742096 28:-0.336618 29:-0.313722 30:0.222309 31:-0.890331 32:-0.0965822 33:-0.111568 34:-0.345771 35:-0.329365 36:0.188217 37:-0.901056 38:0.0723854 39:0.458219 40:-0.242814 41:-0.208524 42:0.613027 43:-0.944612 44:0.0853548 45:0.276404 46:-0.332319 47:-0.300079 48:0.481457 49:-0.978422 50:0.0107276 51:0.127126 52:-0.326942 53:-0.29239 54:0.373037 55:-0.97349 56:-0.0509206 57:0.0186451 58:-0.322252 59:-0.294396 60:0.29369 61:-0.91215 62:-0.0967036 63:-0.0603613 64:-0.318473 65:-0.299898 66:0.242564 67:-0.883695 68:-0.131049 69:-0.119444 70:-0.317082 71:-0.304837 72:0.211155 73:-0.904774 74:0.0831072 75:0.479972 76:-0.252265 77:-0.202333 78:0.628743 79:-0.948288 80:0.0991284 81:0.305638 82:-0.330058 83:-0.296395 84:0.506824 85:-0.979107 86:0.0237058 87:0.162225 88:-0.321427 89:-0.286012 90:0.401003 91:-0.974338 92:-0.035208 93:0.0489738 94:-0.319197 95:-0.291033 96:0.316666 97:-0.913171 98:-0.0844576 99:-0.0413136 100:-0.317112 101:-0.298855 102:0.257939 103:-0.883993 104:-0.126046 105:-0.109926 106:-0.314357 107:-0.303837 108:0.218532 109:-0.940446 110:0.0875771 111:0.470011 112:-0.25882 113:-0.205365 114:0.62219 115:-0.968174 116:0.103638 117:0.311319 118:-0.332444 119:-0.298754 120:0.505776 121:-0.973396 122:0.0318461 123:0.178902 124:-0.321149 125:-0.287584 126:0.406992 127:-0.972098 128:-0.0247722 129:0.0732629 130:-0.31734 131:-0.291283 132:0.325349 133:-0.943297 134:-0.0728722 135:-0.00638315 136:-0.316285 137:-0.298671 138:0.268781 139:-0.919475 140:-0.113804 141:-0.0718807 142:-0.314474 143:-0.303437 144:0.230779 145:-0.89916 146:0.10386 147:0.431114 148:-0.281554 149:-0.228023 150:0.594608 151:-0.850947 152:0.124539 153:0.276216 154:-0.353323 155:-0.326562 156:0.481361 157:-0.769414 158:0.0654435 159:0.159804 160:-0.344478 161:-0.319988 162:0.395086 163:-0.710466 164:0.0179729 165:0.0731371 166:-0.341125 167:-0.324457 168:0.324525 169:-0.649052 170:-0.0216405 171:-0.00292277 172:-0.342719 173:-0.33309 174:0.272226 175:-0.612084 176:-0.0540332 177:-0.0676388 178:-0.345024 179:-0.339893 180:0.232234 181:-0.652735 182:0.0191685 183:0.324979 184:-0.243579 185:-0.221059 186:0.505608 187:-0.566169 188:0.0401129 189:0.194327 190:-0.288861 191:-0.297004 192:0.421353 193:-0.47021 194:-0.0108503 195:0.12675 196:-0.260176 197:-0.275299 198:0.369461 199:-0.399623 200:-0.0556082 201:0.0822677 202:-0.236143 203:-0.260894 204:0.333098 205:-0.335436 206:-0.0939434 207:0.0356582 208:-0.22309 209:-0.256231 210:0.300616 211:-0.291326 212:-0.123426 213:-0.0227822 214:-0.228816 215:-0.264878 216:0.264935 
-0 1.931179905922419 0 0 0 1:-0.942083 2:0.159931 3:-0.917366 4:-0.740296 5:-0.671727 6:-0.430158 7:-0.935206 8:0.0662117 9:-0.897213 10:-0.714093 11:-0.643265 12:-0.393463 13:-0.934172 14:0.0481499 15:-0.906574 16:-0.70547 17:-0.640489 18:-0.390651 19:-0.941825 20:0.0334304 21:-0.91293 22:-0.700429 23:-0.640451 24:-0.389451 25:-0.946226 26:0.0242851 27:-0.90119 28:-0.696614 29:-0.641678 30:-0.389676 31:-0.951765 32:0.0243983 33:-0.888317 34:-0.696261 35:-0.645323 36:-0.389973 37:-0.945486 38:0.0815663 39:-0.892621 40:-0.713452 41:-0.669743 42:-0.395693 43:-0.94335 44:-0.00338936 45:-0.892797 46:-0.686051 47:-0.638735 48:-0.375258 49:-0.948535 50:-0.0274109 51:-0.89729 52:-0.677648 53:-0.636042 54:-0.37401 55:-0.953946 56:-0.0451756 57:-0.900445 58:-0.671005 59:-0.634949 60:-0.373375 61:-0.958594 62:-0.0594282 63:-0.911368 64:-0.665861 65:-0.634365 66:-0.371712 67:-0.964877 68:-0.070261 69:-0.92666 70:-0.662424 71:-0.634891 72:-0.368089 73:-0.947408 74:0.0669623 75:-0.887328 76:-0.710782 77:-0.665751 78:-0.387813 79:-0.951984 80:-0.00700831 81:-0.893985 82:-0.683613 83:-0.644211 84:-0.372265 85:-0.957302 86:-0.032141 87:-0.900832 88:-0.674835 89:-0.641101 90:-0.371532 91:-0.962083 92:-0.0491244 93:-0.905339 94:-0.668382 95:-0.639569 96:-0.372093 97:-0.927365 98:-0.0613031 99:-0.917044 100:-0.663807 101:-0.639065 102:-0.370499 103:-0.917017 104:-0.0739478 105:-0.930653 106:-0.659266 107:-0.63936 108:-0.366888 109:-0.950731 110:0.0621624 111:-0.885861 112:-0.709233 113:-0.667129 114:-0.38624 115:-0.95576 116:-0.010814 117:-0.875654 118:-0.682548 119:-0.647043 120:-0.372475 121:-0.961806 122:-0.0376501 123:-0.888604 124:-0.673095 125:-0.644132 126:-0.372982 127:-0.96614 128:-0.0547895 129:-0.889296 130:-0.666563 131:-0.64191 132:-0.37538 133:-0.915111 134:-0.065609 135:-0.890634 136:-0.662825 137:-0.641527 138:-0.373698 139:-0.880894 140:-0.0781246 141:-0.895461 142:-0.657496 143:-0.640581 144:-0.367315 145:-0.949357 146:0.0760956 147:-0.879716 148:-0.713309 149:-0.66887 150:-0.383633 151:-0.954915 152:0.00515409 153:-0.877796 154:-0.687101 155:-0.649942 156:-0.371532 157:-0.961359 158:-0.0250558 159:-0.886821 160:-0.676813 161:-0.647041 162:-0.371644 163:-0.931049 164:-0.0464237 165:-0.885594 166:-0.669402 167:-0.645 168:-0.374175 169:-0.845873 170:-0.0634056 171:-0.885277 172:-0.66335 173:-0.643823 174:-0.371659 175:-0.811793 176:-0.080171 177:-0.888083 178:-0.656586 179:-0.641022 180:-0.366225 181:-0.951526 182:0.130893 183:-0.869288 184:-0.731754 185:-0.687796 186:-0.390338 187:-0.956552 188:0.0679945 189:-0.888396 190:-0.707681 191:-0.668192 192:-0.378041 193:-0.963072 194:0.0337397 195:-0.894641 196:-0.695947 197:-0.664128 198:-0.377709 199:-0.922972 200:0.00438746 201:-0.893771 202:-0.686134 203:-0.660444 204:-0.378044 205:-0.82433 206:-0.0200075 207:-0.892388 208:-0.677119 209:-0.657155 210:-0.375204 211:-0.787155 212:-0.0410281 213:-0.895444 214:-0.669697 215:-0.652979 216:-0.370443 
-0 0 1.770220268466677 0.2190529006095052 0 1:-0.850492 2:0.719676 3:-0.466923 4:-0.870148 5:-0.759178 6:-0.0908714 7:-0.952603 8:0.782162 9:-0.448928 10:-0.900521 11:-0.755395 12:-0.0627936 13:-0.943683 14:0.802221 15:-0.429372 16:-0.904839 17:-0.747561 18:-0.0392357 19:-0.946994 20:0.759477 21:-0.373983 22:-0.872912 23:-0.715476 24:0.00679295 25:-0.937435 26:0.530975 27:-0.238548 28:-0.701522 29:-0.554937 30:0.100695 31:-0.925753 32:0.298852 33:-0.131651 34:-0.539653 35:-0.39876 36:0.173267 37:-0.771446 38:0.691359 39:-0.51244 40:-0.858162 41:-0.770351 42:-0.111821 43:-0.935234 44:0.762606 45:-0.483005 46:-0.890762 47:-0.758345 48:-0.0749885 49:-0.940415 50:0.790004 51:-0.452026 52:-0.900043 53:-0.75061 54:-0.0493047 55:-0.94047 56:0.75957 57:-0.397352 58:-0.876419 59:-0.724461 60:-0.00823626 61:-0.921093 62:0.533476 63:-0.249268 64:-0.693329 65:-0.553338 66:0.106207 67:-0.912436 68:0.298465 69:-0.106046 70:-0.505377 71:-0.367744 72:0.220769 73:-0.749507 74:0.654918 75:-0.553448 76:-0.848033 77:-0.766443 78:-0.139601 79:-0.914459 80:0.716872 81:-0.501334 82:-0.871698 83:-0.755563 84:-0.0845288 85:-0.943597 86:0.756657 87:-0.471276 88:-0.886008 89:-0.748226 90:-0.0593697 91:-0.941594 92:0.741719 93:-0.420721 94:-0.870898 95:-0.724728 96:-0.0223279 97:-0.922982 98:0.534422 99:-0.265415 100:-0.694782 101:-0.558393 102:0.0971205 103:-0.914238 104:0.305929 105:-0.0879646 106:-0.494155 107:-0.357875 108:0.234197 109:-0.745146 110:0.633058 111:-0.564 112:-0.840086 113:-0.763787 114:-0.146873 115:-0.915815 116:0.705213 117:-0.496193 118:-0.867229 119:-0.756874 120:-0.0917085 121:-0.944675 122:0.750542 123:-0.475397 124:-0.884282 125:-0.752167 126:-0.071072 127:-0.942016 128:0.744973 129:-0.431226 130:-0.875167 131:-0.732772 132:-0.0419116 133:-0.924789 134:0.556325 135:-0.279126 136:-0.715043 137:-0.5816 138:0.0706118 139:-0.916609 140:0.330623 141:-0.0893128 142:-0.511502 143:-0.378171 144:0.21812 145:-0.740942 146:0.620292 147:-0.549594 148:-0.832162 149:-0.759566 150:-0.137287 151:-0.917524 152:0.707589 153:-0.495738 154:-0.867967 155:-0.761338 156:-0.0891652 157:-0.946549 158:0.752629 159:-0.478857 160:-0.885623 161:-0.758782 162:-0.072781 163:-0.943384 164:0.753195 165:-0.439351 166:-0.88085 167:-0.74241 168:-0.0489638 169:-0.927428 170:0.584749 171:-0.30716 172:-0.741496 173:-0.612001 174:0.0502136 175:-0.919391 176:0.361528 177:-0.123913 178:-0.543536 179:-0.412923 180:0.191186 181:-0.742348 182:0.605562 183:-0.51791 184:-0.823094 185:-0.750208 186:-0.126723 187:-0.917768 188:0.716031 189:-0.490792 190:-0.871482 191:-0.762905 192:-0.0843523 193:-0.947221 194:0.759624 195:-0.477506 196:-0.888837 197:-0.762017 198:-0.0721903 199:-0.943852 200:0.763912 201:-0.445666 202:-0.886725 203:-0.748279 204:-0.0508333 205:-0.932385 206:0.61501 207:-0.329271 208:-0.765988 209:-0.637647 210:0.036173 211:-0.924636 212:0.390881 213:-0.153185 214:-0.571489 215:-0.444435 216:0.171872 
-0 0 1.558772890663565 0 0 1:0.597181 2:0.724362 3:0.532491 4:-0.409916 5:-0.663303 6:0.453114 7:0.748969 8:0.788898 9:0.613523 10:-0.384045 11:-0.691944 12:0.475159 13:0.74499 14:0.788979 15:0.618191 16:-0.382337 17:-0.68929 18:0.489231 19:0.73044 20:0.783078 21:0.59682 22:-0.394877 23:-0.690603 24:0.485712 25:0.740832 26:0.775453 27:0.594861 28:-0.405924 29:-0.689557 30:0.492525 31:0.739822 32:0.771074 33:0.53253 34:-0.455428 35:-0.70666 36:0.471168 37:0.687685 38:0.748034 39:0.691552 40:-0.572935 41:-0.755337 42:0.785866 43:0.879935 44:0.77463 45:0.743341 46:-0.570023 47:-0.803696 48:0.82227 49:0.874367 50:0.773599 51:0.753503 52:-0.578369 53:-0.79439 54:0.829817 55:0.858475 56:0.763606 57:0.739005 58:-0.591563 59:-0.785537 60:0.816518 61:0.864664 62:0.752892 63:0.734669 64:-0.600783 65:-0.775492 66:0.816435 67:0.86778 68:0.747989 69:0.703171 70:-0.618136 71:-0.772472 72:0.801449 73:0.665929 74:0.76732 75:0.801095 76:-0.603506 77:-0.730677 78:0.867523 79:0.893109 80:0.794849 81:0.801662 82:-0.611986 83:-0.808561 84:0.870313 85:0.886739 86:0.775766 87:0.788525 88:-0.618682 89:-0.792061 90:0.856142 91:0.869933 92:0.764661 93:0.7705 94:-0.629729 95:-0.783035 96:0.837415 97:0.876478 98:0.755293 99:0.758767 100:-0.635059 101:-0.775189 102:0.83209 103:0.905618 104:0.744 105:0.7536 106:-0.636058 107:-0.766342 108:0.834481 109:0.657736 110:0.75312 111:0.800048 112:-0.603842 113:-0.713513 114:0.867704 115:0.885838 116:0.78009 117:0.799843 118:-0.613475 119:-0.794841 120:0.867239 121:0.883567 122:0.762656 123:0.783044 124:-0.621909 125:-0.780072 126:0.848409 127:0.867159 128:0.753074 129:0.761316 130:-0.632855 131:-0.772165 132:0.826242 133:0.857735 134:0.748023 135:0.755268 136:-0.641353 137:-0.768339 138:0.822182 139:0.880359 140:0.739231 141:0.756835 142:-0.644803 143:-0.76074 144:0.832603 145:0.657012 146:0.744082 147:0.787773 148:-0.611007 149:-0.701337 150:0.860825 151:0.871534 152:0.768389 153:0.789759 154:-0.618583 155:-0.783795 156:0.860904 157:0.875489 158:0.760696 159:0.769894 160:-0.629876 161:-0.778283 162:0.842021 163:0.846639 164:0.75667 165:0.758247 166:-0.643943 167:-0.774619 168:0.823816 169:0.827387 170:0.75493 171:0.752551 172:-0.655156 173:-0.773244 174:0.823523 175:0.800202 176:0.745514 177:0.758339 178:-0.659593 179:-0.762512 180:0.834729 181:0.642287 182:0.749795 183:0.767277 184:-0.628583 185:-0.711496 186:0.837585 187:0.89722 188:0.770756 189:0.773475 190:-0.629856 191:-0.788298 192:0.849495 193:0.921873 194:0.76668 195:0.755464 196:-0.634948 197:-0.785811 198:0.830864 199:0.859453 200:0.768248 201:0.7431 202:-0.650576 203:-0.785472 204:0.817215 205:0.842506 206:0.769013 207:0.739093 208:-0.65914 209:-0.786422 210:0.81665 211:0.779682 212:0.761893 213:0.737428 214:-0.670122 215:-0.777335 216:0.822578 
-0.2718143617778945 0 0 0.1860267923529137 0 1:-0.834165 2:0.131471 3:0.20286 4:-0.357079 5:-0.316819 6:0.413415 7:-0.866701 8:0.188926 9:0.0254198 10:-0.477385 11:-0.445709 12:0.287101 13:-0.830031 14:0.180671 15:-0.0690716 16:-0.494311 17:-0.466452 18:0.226091 19:-0.801283 20:0.175087 21:-0.112736 22:-0.502171 23:-0.478457 24:0.198867 25:-0.815675 26:0.179199 27:-0.125778 28:-0.509608 29:-0.485579 30:0.184148 31:-0.835728 32:0.188236 33:-0.140896 34:-0.520082 35:-0.490994 36:0.166385 37:-0.599422 38:0.0697914 39:0.224851 40:-0.30278 41:-0.294565 42:0.438576 43:-0.565432 44:0.116714 45:0.0693544 46:-0.400578 47:-0.390219 48:0.329744 49:-0.472411 50:0.105511 51:-0.00645545 52:-0.414303 53:-0.406265 54:0.275624 55:-0.409715 56:0.0994242 57:-0.0458261 58:-0.420163 59:-0.416246 60:0.246897 61:-0.41258 62:0.100193 63:-0.0766432 64:-0.428131 65:-0.423839 66:0.230812 67:-0.446295 68:0.0958646 69:-0.0967404 70:-0.431949 71:-0.423747 72:0.227446 73:-0.408729 74:-0.00277788 75:0.271556 76:-0.241302 77:-0.231126 78:0.47355 79:-0.293225 80:0.0358132 81:0.123651 82:-0.321639 83:-0.323339 84:0.373464 85:-0.144924 86:0.0213156 87:0.0479646 88:-0.333563 89:-0.338998 90:0.317969 91:-0.0124325 92:0.014858 93:0.00678098 94:-0.338383 95:-0.349393 96:0.286214 97:-0.0130211 98:0.0125815 99:-0.0291496 100:-0.345979 101:-0.358163 102:0.266668 103:-0.0736745 104:0.00894862 105:-0.0537884 106:-0.352676 107:-0.362438 108:0.258575 109:-0.0611677 110:-0.0704218 111:0.311156 112:-0.173078 113:-0.178919 114:0.503747 115:0.0935463 116:-0.0451533 117:0.177721 118:-0.243262 119:-0.263234 120:0.406926 121:0.250542 122:-0.0650515 123:0.0982688 124:-0.252607 125:-0.277385 126:0.348077 127:0.385676 128:-0.07577 129:0.0529444 130:-0.255382 131:-0.286839 132:0.310557 133:0.377968 134:-0.0823839 135:0.022956 136:-0.262147 137:-0.295041 138:0.290099 139:0.315412 140:-0.0848279 141:-0.000976492 142:-0.271079 143:-0.302392 144:0.282271 145:0.278111 146:-0.125044 147:0.339118 148:-0.117847 149:-0.137916 150:0.525647 151:0.493194 152:-0.112536 153:0.205904 154:-0.178152 155:-0.21429 156:0.429395 157:0.653708 158:-0.140314 159:0.128505 160:-0.183668 161:-0.22469 162:0.372157 163:0.78639 164:-0.156056 165:0.0868127 166:-0.184549 167:-0.231464 168:0.334492 169:0.775356 170:-0.16605 171:0.0548154 172:-0.189513 173:-0.237582 174:0.31436 175:0.706783 176:-0.166121 177:0.025983 178:-0.20207 179:-0.24789 180:0.300525 181:0.515426 182:-0.160179 183:0.351923 184:-0.089786 185:-0.12088 186:0.525666 187:0.754638 188:-0.150196 189:0.208839 190:-0.146339 191:-0.189981 192:0.432428 193:0.887653 194:-0.183988 195:0.132901 196:-0.146835 197:-0.195495 198:0.374885 199:0.996187 200:-0.204997 201:0.0905357 202:-0.143993 203:-0.198963 204:0.340707 205:1 206:-0.217503 207:0.0604295 208:-0.144285 209:-0.20404 210:0.320863 211:0.925799 212:-0.211595 213:0.0229804 214:-0.164892 215:-0.221417 216:0.300583 
-1.047422880187898 2.709749415721941 7.151923087800647 1.598860367447332 1.749666979561419 1:-0.101505 2:-0.64466 3:-0.324842 4:0.010566 5:0.0133715 6:-0.0953746 7:-0.0394459 8:-0.695922 9:-0.286156 10:0.0476712 11:0.0397293 12:-0.0662064 13:-0.00399806 14:-0.765123 15:-0.17429 16:0.147438 17:0.12938 18:0.0166892 19:0.0308382 20:-0.795336 21:-0.0928774 22:0.220756 23:0.190488 24:0.0774502 25:0.0459244 26:-0.801105 27:-0.0340554 28:0.262566 29:0.226811 30:0.114848 31:0.0419828 32:-0.813436 33:0.0276196 34:0.301169 35:0.26536 36:0.157184 37:-0.228196 38:-0.518066 39:-0.496131 40:-0.160928 41:-0.138272 42:-0.186478 43:-0.139324 44:-0.589286 45:-0.453167 46:-0.0932067 47:-0.0732704 48:-0.157076 49:-0.076135 50:-0.693259 51:-0.300323 52:0.0387909 53:0.0470854 54:-0.0560768 55:-0.0199046 56:-0.77435 57:-0.162905 58:0.158718 59:0.147342 60:0.0357211 61:0.00702823 62:-0.789877 63:-0.0884317 64:0.223804 65:0.205399 66:0.0911061 67:0.00929117 68:-0.801867 69:-0.0297875 70:0.270741 71:0.254196 72:0.144014 73:-0.340433 74:-0.295373 75:-0.56161 76:-0.353558 77:-0.178061 78:-0.285428 79:-0.24447 80:-0.359536 81:-0.517398 82:-0.278615 83:-0.114029 84:-0.256997 85:-0.178155 86:-0.468684 87:-0.368869 88:-0.146251 89:0.00467412 90:-0.161026 91:-0.123579 92:-0.562121 93:-0.234956 94:-0.0221676 95:0.103484 96:-0.0701679 97:-0.0942947 98:-0.626901 99:-0.157656 100:0.0712856 101:0.164418 102:0.00449559 103:-0.0754087 104:-0.687614 105:-0.0906177 106:0.15354 107:0.21893 108:0.0767209 109:-0.414929 110:-0.0167162 111:-0.591812 112:-0.523805 113:-0.198829 114:-0.41405 115:-0.322355 116:-0.086626 117:-0.535993 118:-0.452685 119:-0.136335 120:-0.389404 121:-0.254714 122:-0.200149 123:-0.410549 124:-0.329554 125:-0.0291599 126:-0.307152 127:-0.202051 128:-0.302575 129:-0.293401 130:-0.212514 131:0.0592395 132:-0.226721 133:-0.182413 134:-0.412563 135:-0.212709 136:-0.100209 137:0.117561 138:-0.131406 139:-0.146465 140:-0.527951 141:-0.136329 142:0.0169694 143:0.176062 144:-0.030736 145:-0.431202 146:0.225321 147:-0.563004 148:-0.629157 149:-0.178617 150:-0.516867 151:-0.364257 152:0.170211 153:-0.542268 154:-0.584656 155:-0.138318 156:-0.509943 157:-0.308039 158:0.0595383 159:-0.454159 160:-0.493099 161:-0.060811 162:-0.450916 163:-0.267711 164:-0.0478267 165:-0.354304 166:-0.39345 167:0.0123804 168:-0.378355 169:-0.252404 170:-0.200942 171:-0.278488 172:-0.264984 173:0.0678637 174:-0.261628 175:-0.207528 176:-0.366561 177:-0.197275 178:-0.117813 179:0.130153 180:-0.136976 181:-0.403412 182:0.365165 183:-0.489156 184:-0.689976 185:-0.129751 186:-0.597484 187:-0.369783 188:0.349431 189:-0.507925 190:-0.67277 191:-0.109439 192:-0.601541 193:-0.340473 194:0.294375 195:-0.478008 196:-0.63131 197:-0.0762482 198:-0.580293 199:-0.323128 200:0.201254 201:-0.421346 202:-0.568863 203:-0.0339255 204:-0.530066 205:-0.316003 206:0.00713694 207:-0.348298 208:-0.425036 209:0.0189975 210:-0.392553 211:-0.251868 212:-0.209747 213:-0.262121 214:-0.247571 215:0.0830451 216:-0.242008 
-0.07413609784222049 0 2.153701574336849 0.09204344373574469 0.06358540397574504 1:-0.439327 2:0.223385 3:0.532083 4:-0.293861 5:-0.102794 6:0.661609 7:-0.0822165 8:0.405455 9:0.626206 10:-0.385819 11:-0.30736 12:0.73026 13:0.265184 14:0.597877 15:0.697516 16:-0.47546 17:-0.50661 18:0.790611 19:0.611327 20:0.770387 21:0.766552 22:-0.555279 23:-0.687656 24:0.845337 25:0.850533 26:0.833112 27:0.760143 28:-0.587822 29:-0.829923 30:0.83975 31:0.82728 32:0.802448 33:0.722369 34:-0.587312 35:-0.800319 36:0.808975 37:-0.408963 38:0.243911 39:0.524516 40:-0.311543 41:-0.148325 42:0.662548 43:-0.0475966 44:0.402789 45:0.63386 46:-0.366375 47:-0.30779 48:0.743377 49:0.309871 50:0.575654 51:0.709865 52:-0.433901 53:-0.492619 54:0.797995 55:0.675649 56:0.735362 57:0.769007 58:-0.497014 59:-0.668294 60:0.838294 61:0.95044 62:0.773427 63:0.742855 64:-0.50241 65:-0.795137 66:0.822344 67:0.952893 68:0.749622 69:0.678762 70:-0.502806 71:-0.77867 72:0.783933 73:-0.400256 74:0.2574 75:0.515903 76:-0.33194 77:-0.156751 78:0.655484 79:-0.0372641 80:0.383952 81:0.634895 82:-0.343138 83:-0.286798 84:0.748106 85:0.317802 86:0.515451 87:0.719632 88:-0.369494 89:-0.438241 90:0.806077 91:0.680739 92:0.635394 93:0.775946 94:-0.395173 95:-0.585724 96:0.841346 97:0.944565 98:0.640316 99:0.742073 100:-0.367712 101:-0.67595 102:0.820111 103:0.940186 104:0.60664 105:0.674248 106:-0.350211 107:-0.65335 108:0.77788 109:-0.372474 110:0.268585 111:0.49745 112:-0.344149 113:-0.16392 114:0.642639 115:-0.00975675 116:0.356825 117:0.628865 118:-0.319436 119:-0.261952 120:0.740731 121:0.345722 122:0.450947 123:0.716274 124:-0.312 125:-0.3827 126:0.799623 127:0.708089 128:0.536432 129:0.76094 130:-0.31053 131:-0.505643 132:0.825968 133:0.930992 134:0.507339 135:0.728855 136:-0.255338 137:-0.560302 138:0.802991 139:0.930531 140:0.462689 141:0.67038 142:-0.221186 143:-0.52952 144:0.769818 145:-0.352285 146:0.254982 147:0.480225 148:-0.335097 149:-0.161035 150:0.6313 151:0.00884764 152:0.317485 153:0.615181 154:-0.283438 155:-0.231244 156:0.731879 157:0.367712 158:0.385207 159:0.708497 160:-0.247177 161:-0.323217 162:0.797044 163:0.726954 164:0.453734 165:0.745288 166:-0.233823 167:-0.437193 168:0.814372 169:0.926019 170:0.408429 171:0.70697 172:-0.168345 173:-0.474693 174:0.790261 175:0.916943 176:0.36995 177:0.653037 178:-0.141398 179:-0.450295 180:0.757918 181:-0.39544 182:0.219174 183:0.41024 184:-0.340386 185:-0.149895 186:0.569698 187:-0.0675926 188:0.255593 189:0.50928 190:-0.283897 191:-0.203248 192:0.654347 193:0.276012 194:0.29392 195:0.571982 196:-0.240418 197:-0.280406 198:0.696478 199:0.619447 200:0.331791 201:0.570458 202:-0.221656 203:-0.386355 204:0.69115 205:0.835614 206:0.276798 207:0.520477 208:-0.149012 209:-0.418992 210:0.656943 211:0.857103 212:0.257065 213:0.466728 214:-0.131179 215:-0.41435 216:0.624797 
